{"learner":{"attributes":{"best_iteration":"499","best_ntree_limit":"500","scikit_learn":"{\"use_label_encoder\": null, \"n_estimators\": 500, \"objective\": \"binary:logistic\", \"max_depth\": 6, \"max_leaves\": null, \"max_bin\": null, \"grow_policy\": null, \"learning_rate\": 0.1, \"verbosity\": null, \"booster\": null, \"tree_method\": null, \"gamma\": 0, \"min_child_weight\": 4, \"max_delta_step\": null, \"subsample\": 0.9, \"sampling_method\": null, \"colsample_bytree\": 0.9, \"colsample_bylevel\": null, \"colsample_bynode\": null, \"reg_alpha\": null, \"reg_lambda\": null, \"scale_pos_weight\": 1.3359750359106444, \"base_score\": null, \"missing\": NaN, \"num_parallel_tree\": null, \"random_state\": 42, \"n_jobs\": -1, \"monotone_constraints\": null, \"interaction_constraints\": null, \"importance_type\": null, \"gpu_id\": null, \"validate_parameters\": null, \"predictor\": null, \"enable_categorical\": false, \"feature_types\": null, \"max_cat_to_onehot\": null, \"max_cat_threshold\": null, \"eval_metric\": \"logloss\", \"early_stopping_rounds\": null, \"callbacks\": null, \"classes_\": [0, 1], \"n_classes_\": 2, \"_estimator_type\": \"classifier\"}"},"feature_names":["url_length","hostname_length","domain_length","path_length","query_length","fragment_length","num_dots","num_hyphens","num_underscores","num_slashes","num_question_marks","num_equal_signs","num_ampersands","num_digits","digit_ratio","num_letters","letter_ratio","num_special_chars","special_char_ratio","has_at","has_tilde","has_percent_encoding","has_double_slash_in_path","has_https_token_in_host_or_path","num_subdomains","subdomain_count","uses_https","has_ip_address","has_port","has_punycode","has_shortener","is_edu_domain","is_gov_domain","tld_length","is_suspicious_tld","hostname_entropy","path_entropy","query_param_count","num_suspicious_keywords","num_suspicious_keywords_host","num_suspicious_keywords_path","has_institution_keyword","institution_keyword_count"],"feature_types":["int","int","int","int","int","int","int","int","int","int","int","int","int","int","float","int","float","int","float","int","int","int","int","int","int","int","int","int","int","int","int","int","int","int","int","float","float","int","int","int","int","int","int"],"gradient_booster":{"model":{"gbtree_model_param":{"num_parallel_tree":"1","num_trees":"500","size_leaf_vector":"0"},"tree_info":[0,0,0,0,0,0,0,0,0,0,0,0,0,0,0,0,0,0,0,0,0,0,0,0,0,0,0,0,0,0,0,0,0,0,0,0,0,0,0,0,0,0,0,0,0,0,0,0,0,0,0,0,0,0,0,0,0,0,0,0,0,0,0,0,0,0,0,0,0,0,0,0,0,0,0,0,0,0,0,0,0,0,0,0,0,0,0,0,0,0,0,0,0,0,0,0,0,0,0,0,0,0,0,0,0,0,0,0,0,0,0,0,0,0,0,0,0,0,0,0,0,0,0,0,0,0,0,0,0,0,0,0,0,0,0,0,0,0,0,0,0,0,0,0,0,0,0,0,0,0,0,0,0,0,0,0,0,0,0,0,0,0,0,0,0,0,0,0,0,0,0,0,0,0,0,0,0,0,0,0,0,0,0,0,0,0,0,0,0,0,0,0,0,0,0,0,0,0,0,0,0,0,0,0,0,0,0,0,0,0,0,0,0,0,0,0,0,0,0,0,0,0,0,0,0,0,0,0,0,0,0,0,0,0,0,0,0,0,0,0,0,0,0,0,0,0,0,0,0,0,0,0,0,0,0,0,0,0,0,0,0,0,0,0,0,0,0,0,0,0,0,0,0,0,0,0,0,0,0,0,0,0,0,0,0,0,0,0,0,0,0,0,0,0,0,0,0,0,0,0,0,0,0,0,0,0,0,0,0,0,0,0,0,0,0,0,0,0,0,0,0,0,0,0,0,0,0,0,0,0,0,0,0,0,0,0,0,0,0,0,0,0,0,0,0,0,0,0,0,0,0,0,0,0,0,0,0,0,0,0,0,0,0,0,0,0,0,0,0,0,0,0,0,0,0,0,0,0,0,0,0,0,0,0,0,0,0,0,0,0,0,0,0,0,0,0,0,0,0,0,0,0,0,0,0,0,0,0,0,0,0,0,0,0,0,0,0,0,0,0,0,0,0,0,0,0,0,0,0,0,0,0,0,0,0,0,0,0,0,0,0,0,0,0,0,0,0,0,0,0,0,0,0,0,0,0,0,0,0,0,0,0,0,0,0,0,0,0,0,0,0,0,0,0,0,0,0,0,0,0,0,0,0,0,0,0,0,0,0,0,0,0,0,0,0,0,0,0,0,0],"trees":[{"base_weights":[3.999854E-4,-8.5779595E-1,1.9993149E0,1.9997821E0,-1.9144442E0,-1.9397974E0,1.606704E0,1.9760469E0,-1.9530306E0,1.8436701E0,-1.6312003E0,-1.9565212E0,1.3575109E0,-6.6525847E-1,1.9499409E0,-1.9621434E0,-5.3311074E-1,1.6104338E0,4.113072E-1],"categories":[],"categories_nodes":[],"categories_segments":[],"categories_sizes":[],"default_left":[1,1,0,0,1,1,1,0,1,1,0,1,1,0,0,0,0,0,0],"id":0,"left_children":[1,3,-1,-1,5,7,9,-1,11,13,-1,15,17,-1,-1,-1,-1,-1,-1],"loss_changes":[8.336062E4,1.0265783E5,0E0,0E0,2.2188984E3,1.2808516E3,1.3956909E2,0E0,2.8647656E2,4.5641052E1,0E0,1.9530469E2,5.669838E0,0E0,0E0,0E0,0E0,0E0,0E0],"parents":[2147483647,0,0,1,1,4,4,5,5,6,6,8,8,9,9,11,11,12,12],"right_children":[2,4,-1,-1,6,8,10,-1,12,14,-1,16,18,-1,-1,-1,-1,-1,-1],"split_conditions":[2.5E0,5E-1,1.9993149E-1,1.9997822E-1,4.65E1,1.5E0,3.45E1,1.976047E-1,4.5E0,6.5E0,-1.6312003E-1,7.5E0,1.15E1,-6.652585E-2,1.9499409E-1,-1.9621435E-1,-5.3311076E-2,1.6104339E-1,4.1130718E-2],"split_indices":[9,26,0,0,0,6,2,0,13,2,0,17,2,0,0,0,0,0,0],"split_type":[0,0,0,0,0,0,0,0,0,0,0,0,0,0,0,0,0,0,0],"sum_hessian":[4.859172E4,3.3996527E4,1.4595189E4,9.177146E3,2.4819383E4,2.4642398E4,1.7698302E2,8.249646E1,2.4559902E4,1.6531502E2,1.1667988E1,2.4534443E4,2.5459595E1,6.5039625E0,1.5881107E2,2.443754E4,9.6903336E1,1.9535664E1,5.9239316E0],"tree_param":{"num_deleted":"0","num_feature":"43","num_nodes":"19","size_leaf_vector":"0"}},{"base_weights":[4.1052868E-4,-7.809995E-1,1.8180387E0,1.818548E0,-1.7394019E0,1.818315E0,1.2123898E0,-1.7627926E0,1.4368317E0,7.202508E-1,1.4755429E0,1.7989388E0,-1.7749796E0,1.6676043E0,-1.5166411E0,-1.7782559E0,1.1312118E0,-5.805757E-1,1.7740287E0,-1.7833774E0,-4.8937377E-1,1.394544E0,2.1339901E-1],"categories":[],"categories_nodes":[],"categories_segments":[],"categories_sizes":[],"default_left":[1,1,1,0,1,0,1,1,1,0,0,0,1,1,0,1,1,0,0,0,0,0,0],"id":1,"left_children":[1,3,5,-1,7,-1,9,11,13,-1,-1,-1,15,17,-1,19,21,-1,-1,-1,-1,-1,-1],"loss_changes":[6.831097E4,8.380325E4,2.1875E-1,0E0,1.8283672E3,0E0,1.7995644E-1,1.0621641E3,1.2535669E2,0E0,0E0,0E0,2.3353125E2,4.113626E1,0E0,1.594375E2,6.4675903E0,0E0,0E0,0E0,0E0,0E0,0E0],"parents":[2147483647,0,0,1,1,2,2,4,4,6,6,7,7,8,8,12,12,13,13,15,15,16,16],"right_children":[2,4,6,-1,8,-1,10,12,14,-1,-1,-1,16,18,-1,20,22,-1,-1,-1,-1,-1,-1],"split_conditions":[5E-1,5E-1,5E-1,1.818548E-1,4.65E1,1.8183151E-1,6.8E1,1.5E0,3.45E1,7.202508E-2,1.475543E-1,1.7989388E-1,4.5E0,6.5E0,-1.5166412E-1,7.5E0,1.15E1,-5.8057573E-2,1.7740287E-1,-1.7833774E-1,-4.8937377E-2,1.3945441E-1,2.13399E-2],"split_indices":[3,26,31,0,0,0,0,6,2,0,0,0,13,2,0,17,2,0,0,0,0,0,0],"split_type":[0,0,0,0,0,0,0,0,0,0,0,0,0,0,0,0,0,0,0,0,0,0,0],"sum_hessian":[4.8093723E4,3.3634574E4,1.4459149E4,9.05988E3,2.4574695E4,1.4450554E4,8.595673E0,2.4395484E4,1.7920978E2,4.2968554E0,4.2988167E0,8.268861E1,2.4312797E4,1.6662567E2,1.2584092E1,2.4285805E4,2.6991207E1,7.329843E0,1.5929584E2,2.4189305E4,9.650077E1,2.0569992E1,6.421215E0],"tree_param":{"num_deleted":"0","num_feature":"43","num_nodes":"23","size_leaf_vector":"0"}},{"base_weights":[4.0643913E-4,-7.203116E-1,1.6820692E0,1.6824188E0,-1.6068103E0,-1.6283706E0,1.3423617E0,1.6653161E0,-1.6398616E0,1.5372168E0,-1.4704279E0,-1.64299E0,1.1646863E0,-7.249743E-1,1.6338252E0,-1.6482137E0,-3.6344898E-1,2.434593E-1,1.5315828E0],"categories":[],"categories_nodes":[],"categories_segments":[],"categories_sizes":[],"default_left":[1,1,0,0,1,1,1,0,1,1,0,1,1,0,0,0,0,0,0],"id":2,"left_children":[1,3,-1,-1,5,7,9,-1,11,13,-1,15,17,-1,-1,-1,-1,-1,-1],"loss_changes":[5.6797773E4,6.987537E4,0E0,0E0,1.5258711E3,9.031211E2,9.788046E1,0E0,2.0991406E2,3.694925E1,0E0,1.576875E2,8.753265E0,0E0,0E0,0E0,0E0,0E0,0E0],"parents":[2147483647,0,0,1,1,4,4,5,5,6,6,8,8,9,9,11,11,12,12],"right_children":[2,4,-1,-1,6,8,10,-1,12,14,-1,16,18,-1,-1,-1,-1,-1,-1],"split_conditions":[2.5E0,5E-1,1.6820692E-1,1.6824189E-1,4.65E1,1.5E0,3.45E1,1.6653161E-1,4.5E0,6.5E0,-1.470428E-1,7.5E0,3.324047E0,-7.249743E-2,1.6338252E-1,-1.6482137E-1,-3.6344897E-2,2.434593E-2,1.5315829E-1],"split_indices":[9,26,0,0,0,6,2,0,13,2,0,17,35,0,0,0,0,0,0],"split_type":[0,0,0,0,0,0,0,0,0,0,0,0,0,0,0,0,0,0,0],"sum_hessian":[4.686067E4,3.2802797E4,1.4057876E4,8.840626E3,2.3962172E4,2.378871E4,1.7346187E2,8.220481E1,2.3706506E4,1.6264798E2,1.081389E1,2.3680504E4,2.6000843E1,6.3951216E0,1.5625285E2,2.3583934E4,9.657069E1,7.8796587E0,1.8121185E1],"tree_param":{"num_deleted":"0","num_feature":"43","num_nodes":"19","size_leaf_vector":"0"}},{"base_weights":[-5.127579E-4,-6.7464596E-1,1.5762842E0,1.576721E0,-1.5028284E0,1.5765542E0,1.0272897E0,-1.5232894E0,1.2747217E0,5.369934E-1,1.3032154E0,1.5603797E0,-1.5338733E0,1.449281E0,-1.3614407E0,-1.5366106E0,1.0338894E0,-4.5366722E-1,1.5291677E0,-1.5415497E0,-3.6164656E-1,2.4310333E-1,1.3114532E0,1.5531946E0,1.0753437E0],"categories":[],"categories_nodes":[],"categories_segments":[],"categories_sizes":[],"default_left":[1,1,1,0,1,0,1,1,1,0,0,0,1,1,0,1,1,0,1,0,0,0,0,0,0],"id":3,"left_children":[1,3,5,-1,7,-1,9,11,13,-1,-1,-1,15,17,-1,19,21,-1,23,-1,-1,-1,-1,-1,-1],"loss_changes":[4.7939777E4,5.8908504E4,3.828125E-1,0E0,1.3145898E3,0E0,5.866184E-1,7.5071875E2,7.994711E1,0E0,0E0,0E0,1.6219531E2,2.4927032E1,0E0,1.3191406E2,5.1532745E0,0E0,4.5776367E-4,0E0,0E0,0E0,0E0,0E0,0E0],"parents":[2147483647,0,0,1,1,2,2,4,4,6,6,7,7,8,8,12,12,13,13,15,15,16,16,18,18],"right_children":[2,4,6,-1,8,-1,10,12,14,-1,-1,-1,16,18,-1,20,22,-1,24,-1,-1,-1,-1,-1,-1],"split_conditions":[5E-1,5E-1,5E-1,1.5767209E-1,4.65E1,1.5765542E-1,1.04974166E-1,1.5E0,3.45E1,5.369934E-2,1.3032155E-1,1.5603797E-1,4.5E0,6.5E0,-1.3614407E-1,7.5E0,3.315751E0,-4.5366723E-2,3.5E0,-1.5415497E-1,-3.6164656E-2,2.4310334E-2,1.3114533E-1,1.5531947E-1,1.0753437E-1],"split_indices":[3,26,31,0,0,0,14,6,2,0,0,0,13,2,0,17,35,0,6,0,0,0,0,0,0],"split_type":[0,0,0,0,0,0,0,0,0,0,0,0,0,0,0,0,0,0,0,0,0,0,0,0,0],"sum_hessian":[4.509779E4,3.159181E4,1.3505979E4,8.495734E3,2.3096076E4,1.349747E4,8.50906E0,2.2927629E4,1.6844737E2,4.1251583E0,4.3839016E0,7.792312E1,2.2849705E4,1.5840825E2,1.0039116E1,2.2825775E4,2.393053E1,6.193626E0,1.5221463E2,2.2729914E4,9.5860275E1,6.7046523E0,1.7225878E1,1.4226042E2,9.954204E0],"tree_param":{"num_deleted":"0","num_feature":"43","num_nodes":"25","size_leaf_vector":"0"}},{"base_weights":[-9.320186E-4,-6.3862795E-1,1.4920511E0,1.4925685E0,-1.4201949E0,1.4923086E0,1.0223254E0,-1.4395931E0,1.1969014E0,4.70939E-1,1.3044065E0,1.4765315E0,-1.4495159E0,1.3678235E0,-1.1813704E0,-1.4643486E0,-9.7472066E-1,-4.6197036E-1,1.4513261E0,-1.46696E0,1.9640696E-1,2.1046553E-2,-1.4562105E0],"categories":[],"categories_nodes":[],"categories_segments":[],"categories_sizes":[],"default_left":[1,1,1,0,1,0,1,1,1,0,0,0,1,1,0,1,1,0,0,0,0,0,0],"id":4,"left_children":[1,3,5,-1,7,-1,9,11,13,-1,-1,-1,15,17,-1,19,21,-1,-1,-1,-1,-1,-1],"loss_changes":[4.0962215E4,5.021804E4,3.125E-2,0E0,1.1215742E3,0E0,9.769373E-1,6.357617E2,6.7811935E1,0E0,0E0,0E0,1.5225781E2,2.3954437E1,0E0,9.205469E1,3.1843042E2,0E0,0E0,0E0,0E0,0E0,0E0],"parents":[2147483647,0,0,1,1,2,2,4,4,6,6,7,7,8,8,12,12,13,13,15,15,16,16],"right_children":[2,4,6,-1,8,-1,10,12,14,-1,-1,-1,16,18,-1,20,22,-1,-1,-1,-1,-1,-1],"split_conditions":[2.5E0,5E-1,5E-1,1.4925686E-1,4.65E1,1.4923087E-1,5.5E0,1.5E0,3.4E1,4.70939E-2,1.3044065E-1,1.4765315E-1,3.75E1,6.5E0,-1.1813704E-1,1.7316341E-1,2.55E1,-4.619704E-2,1.4513262E-1,-1.46696E-1,1.9640697E-2,2.1046554E-3,-1.4562105E-1],"split_indices":[9,26,31,0,0,0,9,6,2,0,0,0,0,2,0,14,2,0,0,0,0,0,0],"split_type":[0,0,0,0,0,0,0,0,0,0,0,0,0,0,0,0,0,0,0,0,0,0,0],"sum_hessian":[4.3022406E4,3.014653E4,1.2875875E4,8.0888203E3,2.2057709E4,1.2866645E4,9.230664E0,2.1895865E4,1.6184424E2,4.0275307E0,5.203134E0,7.375282E1,2.1822111E4,1.5138905E2,1.0455191E1,2.1159021E4,6.630913E2,6.409314E0,1.4497974E2,2.112592E4,3.310131E1,2.1643639E2,4.466549E2],"tree_param":{"num_deleted":"0","num_feature":"43","num_nodes":"23","size_leaf_vector":"0"}},{"base_weights":[2.1978146E-4,-6.057083E-1,1.4237821E0,1.4242464E0,-1.3507694E0,1.4240489E0,9.244874E-1,-1.3710856E0,8.7818205E-1,1.2086695E0,4.660381E-1,1.40731E0,-1.3801239E0,1.2878143E0,-1.22779E0,-1.3825915E0,9.12152E-1,-7.6128787E-1,1.4478679E0,-1.3944817E0,-9.795063E-1,1.3153098E0,5.457178E-1,-1.3620989E0,3.3087015E-2,1.9930482E0,1.3796368E0],"categories":[],"categories_nodes":[],"categories_segments":[],"categories_sizes":[],"default_left":[1,1,1,0,1,0,1,1,1,0,0,0,1,1,0,1,1,1,1,0,0,0,0,0,0,0,0],"id":5,"left_children":[1,3,5,-1,7,-1,9,11,13,-1,-1,-1,15,17,-1,19,21,23,25,-1,-1,-1,-1,-1,-1,-1,-1],"loss_changes":[3.51904E4,4.328263E4,3.046875E-1,0E0,9.491758E2,0E0,6.5539074E-1,5.228867E2,1.6522359E2,0E0,0E0,0E0,1.1822266E2,5.334445E1,0E0,9.763281E1,2.6561108E0,5.8658776E0,2.7591553E0,0E0,0E0,0E0,0E0,0E0,0E0,0E0,0E0],"parents":[2147483647,0,0,1,1,2,2,4,4,6,6,7,7,8,8,12,12,13,13,15,15,16,16,17,17,18,18],"right_children":[2,4,6,-1,8,-1,10,12,14,-1,-1,-1,16,18,-1,20,22,24,26,-1,-1,-1,-1,-1,-1,-1,-1],"split_conditions":[2.5E0,5E-1,5E-1,1.4242464E-1,4.45E1,1.424049E-1,1.9020331E-1,1.5E0,3.25E1,1.20866954E-1,4.660381E-2,1.40731E-1,4.5E0,6.5E0,-1.22779004E-1,3.75E1,8E0,4.75E1,4.65E1,-1.3944817E-1,-9.795063E-2,1.3153099E-1,5.4571778E-2,-1.3620989E-1,3.3087016E-3,1.9930482E-1,1.3796368E-1],"split_indices":[9,26,31,0,0,0,18,6,2,0,0,0,13,2,0,0,2,0,0,0,0,0,0,0,0,0,0],"split_type":[0,0,0,0,0,0,0,0,0,0,0,0,0,0,0,0,0,0,0,0,0,0,0,0,0,0,0],"sum_hessian":[4.0794848E4,2.8615473E4,1.2179375E4,7.6826934E3,2.093278E4,1.21710205E4,8.354065E0,2.0744086E4,1.8869208E2,4.1470037E0,4.2070613E0,6.676072E1,2.0677326E4,1.5829135E2,3.0400724E1,2.0655488E4,2.183816E1,1.1196072E1,1.4709528E2,2.006126E4,5.9422864E2,9.165081E0,1.26730795E1,5.9677734E0,5.228298E0,1.3223841E1,1.3387144E2],"tree_param":{"num_deleted":"0","num_feature":"43","num_nodes":"27","size_leaf_vector":"0"}},{"base_weights":[7.6024747E-4,-5.804086E-1,1.3674039E0,1.3679003E0,-1.2925922E0,1.367683E0,8.322385E-1,-1.3138527E0,6.9660795E-1,1.3513496E0,-1.3228142E0,1.1930603E0,-1.2298368E0,-1.3279183E0,-1.680268E-1,-8.2475454E-1,1.4220692E0,-1.3302177E0,7.868201E-1,-9.9963385E-1,2.1923387E0,-1.1757393E0,-3.7118938E-2,1.8692619E0,1.328771E0],"categories":[],"categories_nodes":[],"categories_segments":[],"categories_sizes":[],"default_left":[1,1,1,0,1,0,0,1,1,0,1,1,0,1,1,1,1,0,0,0,0,0,0,0,0],"id":6,"left_children":[1,3,5,-1,7,-1,-1,9,11,-1,13,15,-1,17,19,21,23,-1,-1,-1,-1,-1,-1,-1,-1],"loss_changes":[3.0518887E4,3.741016E4,5.761719E-1,0E0,8.3589453E2,0E0,0E0,4.68375E2,2.0177405E2,0E0,1.1453516E2,7.8358826E1,0E0,9.531641E1,1.7261423E2,4.8378687E0,3.7901917E0,0E0,0E0,0E0,0E0,0E0,0E0,0E0,0E0],"parents":[2147483647,0,0,1,1,2,2,4,4,7,7,8,8,10,10,11,11,13,13,14,14,15,15,16,16],"right_children":[2,4,6,-1,8,-1,-1,10,12,-1,14,16,-1,18,20,22,24,-1,-1,-1,-1,-1,-1,-1,-1],"split_conditions":[2.5E0,5E-1,5E-1,1.3679002E-1,4.35E1,1.3676831E-1,8.322385E-2,1.5E0,2.9E1,1.3513497E-1,7.5E0,6.5E0,-1.2298369E-1,4.5E0,5E-1,4.75E1,4.65E1,-1.3302177E-1,7.868201E-2,-9.996339E-2,2.1923387E-1,-1.1757393E-1,-3.711894E-3,1.8692619E-1,1.328771E-1],"split_indices":[9,26,31,0,0,0,0,6,2,0,17,2,0,13,34,0,0,0,0,0,0,0,0,0,0],"split_type":[0,0,0,0,0,0,0,0,0,0,0,0,0,0,0,0,0,0,0,0,0,0,0,0,0],"sum_hessian":[3.8422758E4,2.695896E4,1.1463795E4,7.216361E3,1.97426E4,1.1456263E4,7.5314546E0,1.953416E4,2.084409E2,6.496052E1,1.94692E4,1.66034E2,4.2406914E1,1.9383377E4,8.5822044E1,1.6657963E1,1.4937602E2,1.9362693E4,2.0683327E1,6.3889057E1,2.1932985E1,1.1182218E1,5.4757442E0,2.2499077E1,1.2687695E2],"tree_param":{"num_deleted":"0","num_feature":"43","num_nodes":"25","size_leaf_vector":"0"}},{"base_weights":[2.0349629E-3,-5.578802E-1,1.3204029E0,1.3208352E0,-1.2443087E0,-1.2659811E0,5.5428743E-1,1.3033385E0,-1.2745018E0,1.1136973E0,-1.1527699E0,-1.2793653E0,-1.9028611E-1,-8.8321394E-1,1.3903266E0,-1.1943249E0,-5.5938065E-1,-1.285744E0,-5.400566E-1,-1.0340985E0,1.9352028E0,-1.1996357E0,1.06368825E-1,1.8223442E0,1.275244E0,-8.685232E-1,-1.3059263E0],"categories":[],"categories_nodes":[],"categories_segments":[],"categories_sizes":[],"default_left":[1,1,0,0,1,1,1,0,1,1,1,1,1,1,1,1,0,0,0,0,0,0,0,0,0,0,0],"id":7,"left_children":[1,3,-1,-1,5,7,9,-1,11,13,15,17,19,21,23,25,-1,-1,-1,-1,-1,-1,-1,-1,-1,-1,-1],"loss_changes":[2.653931E4,3.2545027E4,0E0,0E0,7.2115625E2,4.0147852E2,2.1209114E2,0E0,9.574805E1,9.3355545E1,6.875763E-1,8.476367E1,1.4990291E2,6.6730824E0,4.9782104E0,7.019043E-1,0E0,0E0,0E0,0E0,0E0,0E0,0E0,0E0,0E0,0E0,0E0],"parents":[2147483647,0,0,1,1,4,4,5,5,6,6,8,8,9,9,10,10,11,11,12,12,13,13,14,14,15,15],"right_children":[2,4,-1,-1,6,8,10,-1,12,14,16,18,20,22,24,26,-1,-1,-1,-1,-1,-1,-1,-1,-1,-1,-1],"split_conditions":[2.5E0,5E-1,1.3204029E-1,1.3208352E-1,4.25E1,1.5E0,3E1,1.3033386E-1,7.5E0,6.5E0,8.947252E-1,2.5E0,5E-1,4.75E1,2.5E0,8.620508E-1,-5.5938065E-2,-1.285744E-1,-5.400566E-2,-1.0340985E-1,1.935203E-1,-1.1996358E-1,1.0636883E-2,1.8223442E-1,1.275244E-1,-8.685232E-2,-1.3059263E-1],"split_indices":[9,26,0,0,0,6,2,0,17,2,16,13,34,0,6,16,0,0,0,0,0,0,0,0,0,0,0],"split_type":[0,0,0,0,0,0,0,0,0,0,0,0,0,0,0,0,0,0,0,0,0,0,0,0,0,0,0],"sum_hessian":[3.595064E4,2.5234178E4,1.0716462E4,6.752379E3,1.8481799E4,1.8262045E4,2.1975342E2,5.9860615E1,1.8202186E4,1.6577563E2,5.3977783E1,1.812072E4,8.146477E1,1.990368E1,1.4587196E2,4.949868E1,4.4791017E0,1.796498E4,1.5573996E2,5.868177E1,2.2783E1,1.4920535E1,4.9831457E0,2.7563648E1,1.1830831E2,1.4870144E1,3.4628536E1],"tree_param":{"num_deleted":"0","num_feature":"43","num_nodes":"27","size_leaf_vector":"0"}},{"base_weights":[1.0653432E-3,-5.4101473E-1,1.2805215E0,-6.429522E-1,6.863399E-1,-7.004356E-1,6.3547194E-1,2.757793E-1,1.1180131E0,1.2759572E0,-7.167574E-1,-4.754613E-1,7.021406E-1,4.9547758E-2,9.973441E-1,-3.166692E-1,1.268522E0,-7.389753E-1,5.345851E-1,-6.9834906E-1,7.700273E-1,4.8308817E-1,1.1355921E0,-7.0713416E-2,1.0650029E0,7.37085E-1,1.2422974E0,-6.4226305E-1,4.3389845E-1,8.069112E-1,1.2993234E0,-8.013394E-1,-5.4016966E-1,2.9067826E-1,1.1592275E0,-9.2861927E-1,-1.9576757E-1,6.4164066E-1,4.3534428E-2,9.717421E-1,1.4155661E0,4.0733677E-1,-2.5308743E-1,1.1310003E0,6.7181E-1,8.834426E-1,3.39473E-1,8.319494E-1,1.2730254E0,8.08523E-2,-7.860571E-1,1.7459276E-1,1.0397592E0,1.411251E-1,1.1884358E0,1.329676E0,9.6384275E-1],"categories":[],"categories_nodes":[],"categories_segments":[],"categories_sizes":[],"default_left":[1,1,0,1,1,1,1,1,1,0,1,1,1,1,1,1,1,1,1,1,0,1,1,1,1,1,1,1,1,1,1,0,0,0,0,0,0,0,0,0,0,0,0,0,0,0,0,0,0,0,0,0,0,0,0,0,0],"id":8,"left_children":[1,3,-1,5,7,9,11,13,15,-1,17,19,21,23,25,27,29,31,33,35,-1,37,39,41,43,45,47,49,51,53,55,-1,-1,-1,-1,-1,-1,-1,-1,-1,-1,-1,-1,-1,-1,-1,-1,-1,-1,-1,-1,-1,-1,-1,-1,-1,-1],"loss_changes":[2.329998E4,2.9527266E3,0E0,1.6015928E3,3.204782E2,6.7352734E2,6.980954E1,1.5160522E2,1.9085352E2,0E0,5.753613E2,1.5445815E1,8.351337E1,8.657596E1,1.3217911E1,2.0939339E1,1.0304199E1,2.5150586E2,5.4718483E1,5.1504917E0,0E0,4.108101E1,1.2224945E1,5.5400288E1,1.1881561E0,6.098484E0,3.6257935E-1,6.2365875E0,3.930705E0,1.3189236E1,6.3234863E0,0E0,0E0,0E0,0E0,0E0,0E0,0E0,0E0,0E0,0E0,0E0,0E0,0E0,0E0,0E0,0E0,0E0,0E0,0E0,0E0,0E0,0E0,0E0,0E0,0E0,0E0],"parents":[2147483647,0,0,1,1,3,3,4,4,5,5,6,6,7,7,8,8,10,10,11,11,12,12,13,13,14,14,15,15,16,16,17,17,18,18,19,19,21,21,22,22,23,23,24,24,25,25,26,26,27,27,28,28,29,29,30,30],"right_children":[2,4,-1,6,8,10,12,14,16,-1,18,20,22,24,26,28,30,32,34,36,-1,38,40,42,44,46,48,50,52,54,56,-1,-1,-1,-1,-1,-1,-1,-1,-1,-1,-1,-1,-1,-1,-1,-1,-1,-1,-1,-1,-1,-1,-1,-1,-1,-1],"split_conditions":[2.5E0,5E-1,1.2805216E-1,5E-1,5.5E0,1.5E0,6.5E0,1.4907408E-1,6.5E0,1.2759572E-1,3.5E0,2.8991598E-1,5.5E0,5E-1,2.1240601E-1,2.25E1,1.65E1,5.5E0,5.5E0,1.75E1,7.700273E-2,3.5E0,2.5E0,1.45E1,3.5E0,2.35E1,1.35E1,1.45E1,2.95E1,2.5E0,1.55E1,-8.013394E-2,-5.4016966E-2,2.9067827E-2,1.1592275E-1,-9.286193E-2,-1.9576756E-2,6.4164065E-2,4.3534427E-3,9.717421E-2,1.415566E-1,4.0733676E-2,-2.5308743E-2,1.1310003E-1,6.7181E-2,8.834426E-2,3.39473E-2,8.319494E-2,1.2730254E-1,8.08523E-3,-7.860571E-2,1.7459277E-2,1.03975914E-1,1.411251E-2,1.1884358E-1,1.329676E-1,9.638428E-2],"split_indices":[9,13,0,34,17,6,2,14,2,0,33,18,17,34,14,1,1,17,17,1,0,33,6,15,33,0,1,15,1,6,2,0,0,0,0,0,0,0,0,0,0,0,0,0,0,0,0,0,0,0,0,0,0,0,0,0,0],"split_type":[0,0,0,0,0,0,0,0,0,0,0,0,0,0,0,0,0,0,0,0,0,0,0,0,0,0,0,0,0,0,0,0,0,0,0,0,0,0,0,0,0,0,0,0,0,0,0,0,0,0,0,0,0,0,0,0,0],"sum_hessian":[3.3592387E4,2.3595865E4,9.9965205E3,2.1786844E4,1.8090219E3,2.08498E4,9.3704376E2,9.2802466E2,8.809972E2,1.701431E2,2.0679656E4,5.2702606E1,8.843412E2,7.0732605E2,2.2069864E2,8.35431E1,7.974541E2,2.0319293E4,3.60364E2,4.507539E1,7.6272173E0,5.8886316E2,2.9547803E2,6.3325903E2,7.406702E1,1.08950035E2,1.117486E2,5.836768E1,2.5175417E1,5.1583565E1,7.4587054E2,1.5464988E4,4.8543047E3,2.602201E2,1.0014392E2,3.0330853E1,1.4744536E1,4.32423E2,1.5644014E2,1.8921436E2,1.0626367E2,1.7453181E2,4.587272E2,6.181494E1,1.2252071E1,7.874339E1,3.0206638E1,9.740923E0,1.02007675E2,9.754038E0,4.8613644E1,1.8531984E1,6.6434336E0,1.9290407E1,3.2293156E1,6.8126935E2,6.46012E1],"tree_param":{"num_deleted":"0","num_feature":"43","num_nodes":"57","size_leaf_vector":"0"}},{"base_weights":[4.7704237E-4,-4.9984282E-1,1.246623E0,1.2880617E0,-1.180903E0,-1.2012473E0,4.9064082E-1,1.2337223E0,-1.2094404E0,1.0074651E0,-1.0988313E0,-1.2148439E0,-9.970444E-2,-8.6884755E-1,1.2893959E0,-1.1427728E0,-5.263042E-1,-1.2217833E0,-4.8816022E-1,-8.601199E-1,1.6454452E0,-1.1262324E0,6.0075257E-2,1.3295329E0,1.6240054E-1,-1.2019794E0,-5.6771123E-1],"categories":[],"categories_nodes":[],"categories_segments":[],"categories_sizes":[],"default_left":[1,1,0,0,1,1,1,0,1,1,1,1,1,1,1,1,0,0,0,0,0,0,0,0,0,0,0],"id":9,"left_children":[1,3,-1,-1,5,7,9,-1,11,13,15,17,19,21,23,25,-1,-1,-1,-1,-1,-1,-1,-1,-1,-1,-1],"loss_changes":[2.0147137E4,2.8077525E4,0E0,0E0,5.684043E2,3.3060352E2,1.6662637E2,0E0,9.847461E1,8.182924E1,6.54377E-1,8.191406E1,1.08589165E2,4.975671E0,5.802231E0,8.6699677E-1,0E0,0E0,0E0,0E0,0E0,0E0,0E0,0E0,0E0,0E0,0E0],"parents":[2147483647,0,0,1,1,4,4,5,5,6,6,8,8,9,9,10,10,11,11,12,12,13,13,14,14,15,15],"right_children":[2,4,-1,-1,6,8,10,-1,12,14,16,18,20,22,24,26,-1,-1,-1,-1,-1,-1,-1,-1,-1,-1,-1],"split_conditions":[5E-1,5E-1,1.246623E-1,1.2880617E-1,4.25E1,1.5E0,3E1,1.23372234E-1,7.5E0,6.5E0,8.947252E-1,2.5E0,5E-1,4.75E1,1.55E1,4.65E1,-5.263042E-2,-1.2217833E-1,-4.881602E-2,-8.601199E-2,1.6454452E-1,-1.1262324E-1,6.0075256E-3,1.3295329E-1,1.6240055E-2,-1.20197944E-1,-5.6771126E-2],"split_indices":[3,26,0,0,0,6,2,0,17,2,16,13,34,0,2,0,0,0,0,0,0,0,0,0,0,0,0],"split_type":[0,0,0,0,0,0,0,0,0,0,0,0,0,0,0,0,0,0,0,0,0,0,0,0,0,0,0],"sum_hessian":[3.2312443E4,2.3056145E4,9.256299E3,6.3597563E3,1.6696387E4,1.6495898E4,2.0048975E2,5.4816494E1,1.6441082E4,1.5157167E2,4.891807E1,1.6361319E4,7.976168E1,1.9527826E1,1.3204385E2,4.4506207E1,4.4118657E0,1.6205881E4,1.5543834E2,5.5907986E1,2.3853693E1,1.5124689E1,4.403138E0,1.273294E2,4.7144485E0,3.93633E1,5.142905E0],"tree_param":{"num_deleted":"0","num_feature":"43","num_nodes":"27","size_leaf_vector":"0"}},{"base_weights":[9.084191E-4,-4.8720253E-1,1.2175292E0,1.2532228E0,-1.1468452E0,1.217932E0,6.022734E-1,-1.1669546E0,4.6528292E-1,1.2014395E0,-1.1745374E0,9.476113E-1,-1.0718945E0,-1.1877165E0,-7.1172583E-1,-8.537592E-1,1.2309989E0,-7.748259E-1,-1.1559182E0,-1.1905046E0,1.2919822E-1,2.771073E-1,-1.1940081E0,-1.0867159E0,-9.163624E-2,1.6510693E0,1.1183459E0,-1.0546577E0,-1.614214E-1,-1.206461E0,-6.625876E-1],"categories":[],"categories_nodes":[],"categories_segments":[],"categories_sizes":[],"default_left":[1,1,1,0,1,0,0,1,1,0,1,1,1,1,1,1,1,1,1,0,0,0,0,0,0,0,0,0,0,0,0],"id":10,"left_children":[1,3,5,-1,7,-1,-1,9,11,-1,13,15,17,19,21,23,25,27,29,-1,-1,-1,-1,-1,-1,-1,-1,-1,-1,-1,-1],"loss_changes":[1.7799674E4,2.455993E4,1.3935547E0,0E0,5.034414E2,0E0,0E0,2.7657812E2,1.4324408E2,0E0,9.231445E1,7.586069E1,2.596817E-1,5.467383E1,2.0319225E2,3.5419626E0,4.1651154E0,2.1020927E0,4.9552917E-2,0E0,0E0,0E0,0E0,0E0,0E0,0E0,0E0,0E0,0E0,0E0,0E0],"parents":[2147483647,0,0,1,1,2,2,4,4,7,7,8,8,10,10,11,11,12,12,13,13,14,14,15,15,16,16,17,17,18,18],"right_children":[2,4,6,-1,8,-1,-1,10,12,-1,14,16,18,20,22,24,26,28,30,-1,-1,-1,-1,-1,-1,-1,-1,-1,-1,-1,-1],"split_conditions":[2.5E0,5E-1,5E-1,1.2532228E-1,4.25E1,1.217932E-1,6.0227342E-2,1.5E0,3E1,1.2014395E-1,3.75E1,6.5E0,8.620508E-1,1.7316341E-1,2.55E1,4.75E1,2.5E0,8.4699E-1,3.55E1,-1.1905046E-1,1.2919823E-2,2.771073E-2,-1.19400814E-1,-1.086716E-1,-9.163625E-3,1.6510694E-1,1.11834586E-1,-1.0546577E-1,-1.6142141E-2,-1.206461E-1,-6.625876E-2],"split_indices":[9,26,31,0,0,0,0,6,2,0,0,2,16,14,2,0,6,16,2,0,0,0,0,0,0,0,0,0,0,0,0],"split_type":[0,0,0,0,0,0,0,0,0,0,0,0,0,0,0,0,0,0,0,0,0,0,0,0,0,0,0,0,0,0,0],"sum_hessian":[2.9971559E4,2.1390316E4,8.581242E3,5.878739E3,1.5511577E4,8.574649E3,6.592726E0,1.5320746E4,1.9083125E2,4.839338E1,1.5272353E4,1.4554605E2,4.5285213E1,1.4847975E4,4.24378E2,1.9510931E1,1.2603511E2,1.2238186E1,3.3047028E1,1.4816702E4,3.127256E1,1.3926518E2,2.851128E2,1.4617056E1,4.8938746E0,2.3764322E1,1.0227079E2,7.9102297E0,4.327956E0,2.8664728E1,4.3823E0],"tree_param":{"num_deleted":"0","num_feature":"43","num_nodes":"31","size_leaf_vector":"0"}},{"base_weights":[2.1696761E-3,-4.7232366E-1,1.1922616E0,1.2234008E0,-1.1156175E0,1.1926987E0,5.0068885E-1,-1.1406959E0,1.7911741E-1,1.1757679E0,-1.1484215E0,9.108815E-1,-1.0481315E0,-1.1593829E0,-6.019874E-1,-8.9755666E-1,1.4192214E0,-7.227127E-1,-1.141274E0,-1.1615864E0,5.951862E-1,-8.1647784E-1,1.4345675E0,-1.0549393E0,1.8589447E-1,2.6011684E0,1.2108777E0,-1.0784975E0,-4.9637043E-1,-1.1800523E0,-4.2141756E-1],"categories":[],"categories_nodes":[],"categories_segments":[],"categories_sizes":[],"default_left":[1,1,1,0,1,0,0,1,1,0,1,1,1,1,1,1,1,1,1,0,0,0,0,0,0,0,0,0,0,0,0],"id":11,"left_children":[1,3,5,-1,7,-1,-1,9,11,-1,13,15,17,19,21,23,25,27,29,-1,-1,-1,-1,-1,-1,-1,-1,-1,-1,-1,-1],"loss_changes":[1.5701566E4,2.168697E4,1.7998047E0,0E0,4.681836E2,0E0,0E0,2.5438086E2,2.4767444E2,0E0,8.3708984E1,1.5998276E2,2.2997437E0,5.4101562E1,1.2313833E2,6.7597733E0,3.0130676E1,1.5315466E0,1.6917648E0,0E0,0E0,0E0,0E0,0E0,0E0,0E0,0E0,0E0,0E0,0E0,0E0],"parents":[2147483647,0,0,1,1,2,2,4,4,7,7,8,8,10,10,11,11,12,12,13,13,14,14,15,15,16,16,17,17,18,18],"right_children":[2,4,6,-1,8,-1,-1,10,12,-1,14,16,18,20,22,24,26,28,30,-1,-1,-1,-1,-1,-1,-1,-1,-1,-1,-1,-1],"split_conditions":[2.5E0,5E-1,5E-1,1.2234008E-1,4.05E1,1.1926987E-1,5.0068885E-2,5E-1,1.65E1,1.1757679E-1,5E-1,6.5E0,8.620508E-1,4.5E0,6.5E0,4.75E1,4.25E1,2.5E0,8.947252E-1,-1.1615864E-1,5.9518617E-2,-8.164778E-2,1.4345674E-1,-1.05493926E-1,1.8589448E-2,2.6011685E-1,1.2108777E-1,-1.07849754E-1,-4.9637046E-2,-1.1800523E-1,-4.2141758E-2],"split_indices":[9,26,31,0,0,0,0,24,2,0,34,2,16,13,17,0,0,33,16,0,0,0,0,0,0,0,0,0,0,0,0],"split_type":[0,0,0,0,0,0,0,0,0,0,0,0,0,0,0,0,0,0,0,0,0,0,0,0,0,0,0,0,0,0,0],"sum_hessian":[2.7803607E4,1.9878564E4,7.9250425E3,5.4669E3,1.4411665E4,7.919312E3,5.7304997E0,1.4137938E4,2.7372623E2,4.649158E1,1.4091447E4,1.7164082E2,1.0208542E2,1.3813232E4,2.782148E2,3.7492874E1,1.3414795E2,2.4666267E1,7.741915E1,1.3796244E4,1.6987846E1,2.5224716E2,2.5967638E1,3.27604E1,4.7324743E0,1.8381815E1,1.1576613E2,8.126857E0,1.6539412E1,7.2855194E1,4.563957E0],"tree_param":{"num_deleted":"0","num_feature":"43","num_nodes":"31","size_leaf_vector":"0"}},{"base_weights":[1.5656222E-3,-4.622569E-1,1.1705489E0,1.1976984E0,-1.0899674E0,1.1710182E0,5.102691E-1,-1.1146095E0,1.4403324E-1,1.150711E0,-1.1218488E0,7.954169E-1,-1.0485493E0,-1.1331087E0,-5.7669944E-1,-9.0240645E-1,1.2749778E0,-1.0777832E0,-3.6348137E-1,-1.1444378E0,-7.7879345E-1,-8.044569E-1,1.381412E0,-1.0180794E0,-9.935722E-2,1.9605937E0,1.043403E0,-7.966454E-1,-1.1572645E0],"categories":[],"categories_nodes":[],"categories_segments":[],"categories_sizes":[],"default_left":[1,1,1,0,1,0,0,1,1,0,1,1,1,1,1,1,1,1,0,0,0,0,0,0,0,0,0,0,0],"id":12,"left_children":[1,3,5,-1,7,-1,-1,9,11,-1,13,15,17,19,21,23,25,27,-1,-1,-1,-1,-1,-1,-1,-1,-1,-1,-1],"loss_changes":[1.3931141E4,1.916839E4,1.6640625E0,0E0,4.0605566E2,0E0,0E0,2.159082E2,2.0453427E2,0E0,7.942578E1,1.3969583E2,1.4720001E0,5.041211E1,1.1975887E2,3.4345112E0,1.9086258E1,1.061058E0,0E0,0E0,0E0,0E0,0E0,0E0,0E0,0E0,0E0,0E0,0E0],"parents":[2147483647,0,0,1,1,2,2,4,4,7,7,8,8,10,10,11,11,12,12,13,13,14,14,15,15,16,16,17,17],"right_children":[2,4,6,-1,8,-1,-1,10,12,-1,14,16,18,20,22,24,26,28,-1,-1,-1,-1,-1,-1,-1,-1,-1,-1,-1],"split_conditions":[2.5E0,5E-1,5E-1,1.19769834E-1,4.05E1,1.17101826E-1,5.102691E-2,1.5E0,2.75E1,1.1507111E-1,5E-1,6.5E0,8.947252E-1,5E-1,3.55E1,4.75E1,2.5E0,8.620508E-1,-3.6348138E-2,-1.1444378E-1,-7.787935E-2,-8.044569E-2,1.381412E-1,-1.01807944E-1,-9.935722E-3,1.9605938E-1,1.0434031E-1,-7.966454E-2,-1.1572645E-1],"split_indices":[9,26,31,0,0,0,0,6,2,0,34,2,16,13,0,0,6,16,0,0,0,0,0,0,0,0,0,0,0],"split_type":[0,0,0,0,0,0,0,0,0,0,0,0,0,0,0,0,0,0,0,0,0,0,0,0,0,0,0,0,0],"sum_hessian":[2.5691693E4,1.8394023E4,7.2976714E3,5.046869E3,1.3347153E4,7.2917144E3,5.9570923E0,1.3085934E4,2.6122028E2,4.11826E1,1.3044751E4,1.6915923E2,9.206104E1,1.277971E4,2.6504117E2,3.70625E1,1.3209673E2,8.77435E1,4.3175387E0,1.2381585E4,3.9812442E2,2.3795288E2,2.7088295E1,3.2162045E1,4.9004545E0,3.1467E1,1.0062973E2,2.1768368E1,6.5975136E1],"tree_param":{"num_deleted":"0","num_feature":"43","num_nodes":"29","size_leaf_vector":"0"}},{"base_weights":[3.122319E-3,-4.5088142E-1,1.1513261E0,1.1753999E0,-1.0633467E0,1.1518326E0,4.8277515E-1,-1.0880888E0,1.4164282E-1,1.1308773E0,-1.0955538E0,7.7693313E-1,-1.0185378E0,-1.1073905E0,-5.420143E-1,-8.242687E-1,1.2244074E0,-1.0480071E0,-3.9450952E-1,-1.1137543E0,-3.086745E-1,-7.4876654E-1,1.240111E0,-4.332425E-3,-9.588795E-1,1.8199986E0,1.0228512E0,-7.5988513E-1,-1.1335752E0],"categories":[],"categories_nodes":[],"categories_segments":[],"categories_sizes":[],"default_left":[1,1,1,0,1,0,0,1,1,0,1,1,1,1,1,1,1,1,0,0,0,0,0,0,0,0,0,0,0],"id":13,"left_children":[1,3,5,-1,7,-1,-1,9,11,-1,13,15,17,19,21,23,25,27,-1,-1,-1,-1,-1,-1,-1,-1,-1,-1,-1],"loss_changes":[1.2341302E4,1.6900215E4,1.7148438E0,0E0,3.6761328E2,0E0,0E0,2.0129492E2,1.842172E2,0E0,7.827051E1,1.1663469E2,1.213829E0,5.955371E1,9.450689E1,3.9522095E0,1.3327789E1,1.2069397E0,0E0,0E0,0E0,0E0,0E0,0E0,0E0,0E0,0E0,0E0,0E0],"parents":[2147483647,0,0,1,1,2,2,4,4,7,7,8,8,10,10,11,11,12,12,13,13,14,14,15,15,16,16,17,17],"right_children":[2,4,6,-1,8,-1,-1,10,12,-1,14,16,18,20,22,24,26,28,-1,-1,-1,-1,-1,-1,-1,-1,-1,-1,-1],"split_conditions":[2.5E0,5E-1,5E-1,1.17539994E-1,4.05E1,1.1518326E-1,4.8277516E-2,1.5E0,2.75E1,1.1308773E-1,5E-1,6.5E0,8.947252E-1,1.5E0,3.55E1,8.164983E-1,2.5E0,8.620508E-1,-3.9450955E-2,-1.1137543E-1,-3.0867452E-2,-7.487666E-2,1.240111E-1,-4.332425E-4,-9.588795E-2,1.8199986E-1,1.02285124E-1,-7.5988516E-2,-1.1335752E-1],"split_indices":[9,26,31,0,0,0,0,6,2,0,34,2,16,7,0,16,6,16,0,0,0,0,0,0,0,0,0,0,0],"split_type":[0,0,0,0,0,0,0,0,0,0,0,0,0,0,0,0,0,0,0,0,0,0,0,0,0,0,0,0,0],"sum_hessian":[2.36726E4,1.6965135E4,6.707466E3,4.640987E3,1.2324147E4,6.701665E3,5.800734E0,1.2076283E4,2.4786438E2,3.9986183E1,1.2036297E4,1.6037613E2,8.748824E1,1.1783324E4,2.5297256E2,3.4845623E1,1.2553051E2,8.289419E1,4.59405E0,1.1689791E4,9.353365E1,2.2719456E2,2.5778004E1,5.05951E0,2.9786114E1,2.9709705E1,9.58208E1,2.1243677E1,6.1650513E1],"tree_param":{"num_deleted":"0","num_feature":"43","num_nodes":"29","size_leaf_vector":"0"}},{"base_weights":[2.831872E-3,-4.4311538E-1,1.1349075E0,1.1558659E0,-1.0407376E0,1.1352991E0,5.706188E-1,-1.0545821E0,1.0392584E0,1.1209748E0,-1.0617362E0,1.1160332E0,-1.6043323E-1,-1.0855385E0,-4.581261E-1,1.8971333E-1,1.1879752E0,-1.0962791E0,-7.557348E-1,3.487842E-1,-1.057358E0],"categories":[],"categories_nodes":[],"categories_segments":[],"categories_sizes":[],"default_left":[1,1,1,0,1,0,0,1,1,0,1,1,0,1,1,0,0,0,0,0,0],"id":14,"left_children":[1,3,5,-1,7,-1,-1,9,11,-1,13,15,-1,17,19,-1,-1,-1,-1,-1,-1],"loss_changes":[1.1030065E4,1.4979124E4,7.163086E-1,0E0,3.2966992E2,0E0,0E0,1.7761133E2,7.1743393E0,0E0,1.6183398E2,4.539871E0,0E0,3.767383E1,2.0846312E2,0E0,0E0,0E0,0E0,0E0,0E0],"parents":[2147483647,0,0,1,1,2,2,4,4,7,7,8,8,10,10,11,11,13,13,14,14],"right_children":[2,4,6,-1,8,-1,-1,10,12,-1,14,16,-1,18,20,-1,-1,-1,-1,-1,-1],"split_conditions":[2.5E0,5E-1,5E-1,1.15586594E-1,4.5E0,1.1352991E-1,5.706188E-2,1.5E0,1.25E1,1.1209748E-1,3.75E1,3.1814194E0,-1.6043324E-2,5E-1,2.55E1,1.8971333E-2,1.1879752E-1,-1.0962792E-1,-7.557348E-2,3.487842E-2,-1.057358E-1],"split_indices":[9,26,31,0,13,0,0,6,2,0,0,35,0,13,2,0,0,0,0,0,0],"split_type":[0,0,0,0,0,0,0,0,0,0,0,0,0,0,0,0,0,0,0,0,0],"sum_hessian":[2.1846379E4,1.5673057E4,6.1733223E3,4.2638594E3,1.1409197E4,6.1680293E3,5.293283E0,1.1334249E4,7.4948166E1,3.6638794E1,1.129761E4,7.0505844E1,4.4423223E0,1.0868242E4,4.2936807E2,5.3432775E0,6.516257E1,1.0523209E4,3.4503287E2,1.8315465E2,2.4621341E2],"tree_param":{"num_deleted":"0","num_feature":"43","num_nodes":"21","size_leaf_vector":"0"}},{"base_weights":[2.7397298E-3,-4.3168345E-1,1.120364E0,1.13885E0,-1.0156192E0,1.1207886E0,5.944308E-1,-1.0388097E0,3.4512326E-1,1.102914E0,-1.0457811E0,1.2880449E0,-8.622052E-1,-1.069307E0,-5.6616706E-1,-1.0398469E0,1.5564884E0,-3.7214735E-1,-9.614198E-1,4.6608422E-2,-1.0734111E0,1.6836917E-1,-1.0557383E0,1.0807945E0,2.5245883E0,-9.001322E-1,7.2748375E-1,-1.06742E0,-2.7666807E-1],"categories":[],"categories_nodes":[],"categories_segments":[],"categories_sizes":[],"default_left":[1,1,1,0,1,0,0,1,1,0,1,1,1,1,1,0,1,1,1,0,0,0,0,0,0,0,0,0,0],"id":15,"left_children":[1,3,5,-1,7,-1,-1,9,11,-1,13,15,17,19,21,-1,23,25,27,-1,-1,-1,-1,-1,-1,-1,-1,-1,-1],"loss_changes":[9.760532E3,1.3277179E4,5.908203E-1,0E0,3.3337793E2,0E0,0E0,1.5608789E2,2.032819E2,0E0,1.1610254E2,6.418092E1,3.4577484E0,4.520117E1,1.7486218E2,0E0,3.87937E1,9.273239E0,4.395851E0,0E0,0E0,0E0,0E0,0E0,0E0,0E0,0E0,0E0,0E0],"parents":[2147483647,0,0,1,1,2,2,4,4,7,7,8,8,10,10,11,11,12,12,13,13,14,14,16,16,17,17,18,18],"right_children":[2,4,6,-1,8,-1,-1,10,12,-1,14,16,18,20,22,-1,24,26,28,-1,-1,-1,-1,-1,-1,-1,-1,-1,-1],"split_conditions":[2.5E0,5E-1,5E-1,1.13885E-1,1.5E0,1.1207886E-1,5.9443083E-2,1.5E0,1.55E1,1.102914E-1,3.65E1,6.5E0,7.6794875E-1,6.1986864E-1,2.45E1,-1.0398469E-1,7.4179894E-1,3.7261438E0,8.2554346E-1,4.6608425E-3,-1.0734111E-1,1.6836917E-2,-1.0557383E-1,1.0807945E-1,2.5245884E-1,-9.001322E-2,7.274838E-2,-1.06742E-1,-2.7666807E-2],"split_indices":[9,26,31,0,7,0,0,6,2,0,0,2,16,16,2,0,16,35,16,0,0,0,0,0,0,0,0,0,0],"split_type":[0,0,0,0,0,0,0,0,0,0,0,0,0,0,0,0,0,0,0,0,0,0,0,0,0,0,0,0,0],"sum_hessian":[2.0101182E4,1.4475237E4,5.6259453E3,3.923033E3,1.0552204E4,5.620277E3,5.6680546E0,1.0375614E4,1.7659001E2,3.3153873E1,1.034246E4,9.9114716E1,7.7475296E1,9.857696E3,4.847637E2,9.950677E0,8.916404E1,1.3844262E1,6.3631035E1,3.6084156E1,9.821612E3,1.9413947E2,2.9062424E2,6.1205822E1,2.7958218E1,9.475872E0,4.36839E0,5.461737E1,9.013664E0],"tree_param":{"num_deleted":"0","num_feature":"43","num_nodes":"29","size_leaf_vector":"0"}},{"base_weights":[3.044728E-3,-4.2541462E-1,1.1069772E0,1.1238638E0,-9.95959E-1,1.1076459E0,3.5338774E-1,-1.0186669E0,2.8793305E-1,-1.0464557E0,-5.20901E-1,-3.6032107E-1,1.157979E0,1.0753733E0,-1.0530304E0,-8.019934E-1,3.1273553E-1,-5.105938E-1,1.4486965E0,3.4390882E-1,1.2837032E0,-1.0544568E0,1.3364596E0,-8.45266E-1,1.4314996E0,1.793933E-1,1.8422619E0,-7.511737E-1,2.0628205E-1,7.632629E-1,-1.9536614E-1,1.8794959E0,1.0874134E0],"categories":[],"categories_nodes":[],"categories_segments":[],"categories_sizes":[],"default_left":[1,1,1,0,1,0,0,1,1,1,1,1,1,0,1,1,1,1,0,1,1,0,0,0,0,0,0,0,0,0,0,0,0],"id":16,"left_children":[1,3,5,-1,7,-1,-1,9,11,13,15,17,19,-1,21,23,25,27,-1,29,31,-1,-1,-1,-1,-1,-1,-1,-1,-1,-1,-1,-1],"loss_changes":[8.726984E3,1.1750197E4,2.2075195E0,0E0,2.8352637E2,0E0,0E0,1.3150293E2,9.608387E1,1.2725E2,1.1899783E2,2.7369923E1,6.9949036E0,0E0,3.2131836E1,3.786412E1,2.5877857E1,1.5881557E1,0E0,2.6561751E0,5.273857E0,0E0,0E0,0E0,0E0,0E0,0E0,0E0,0E0,0E0,0E0,0E0,0E0],"parents":[2147483647,0,0,1,1,2,2,4,4,7,7,8,8,9,9,10,10,11,11,12,12,14,14,15,15,16,16,17,17,19,19,20,20],"right_children":[2,4,6,-1,8,-1,-1,10,12,14,16,18,20,-1,22,24,26,28,-1,30,32,-1,-1,-1,-1,-1,-1,-1,-1,-1,-1,-1,-1],"split_conditions":[2.5E0,5E-1,5E-1,1.1238638E-1,2.5E0,1.10764585E-1,3.5338774E-2,3.65E1,3.8125768E0,1.5E0,5E-1,5E-1,5.5E0,1.0753733E-1,5E-1,5E-1,5E-1,1.7316341E-1,1.4486966E-1,1.1942959E-1,4.5E0,-1.0544568E-1,1.3364597E-1,-8.45266E-2,1.4314996E-1,1.7939331E-2,1.842262E-1,-7.511737E-2,2.0628205E-2,7.6326296E-2,-1.9536614E-2,1.8794958E-1,1.0874134E-1],"split_indices":[9,26,31,0,13,0,0,0,35,6,7,34,17,0,38,13,13,14,0,14,13,0,0,0,0,0,0,0,0,0,0,0,0],"split_type":[0,0,0,0,0,0,0,0,0,0,0,0,0,0,0,0,0,0,0,0,0,0,0,0,0,0,0,0,0,0,0,0,0],"sum_hessian":[1.844867E4,1.3290833E4,5.1578364E3,3.5769294E3,9.713903E3,5.1527944E3,5.0421205E0,9.545285E3,1.6861838E2,9.039531E3,5.057536E2,9.6960724E1,7.165766E1,2.742098E1,9.01211E3,3.782501E2,1.275035E2,9.0186775E1,6.7739453E0,1.0085964E1,6.15717E1,9.007292E3,4.8184295E0,3.7167075E2,6.579339E0,1.1830694E2,9.196567E0,6.748972E1,2.269705E1,5.4401855E0,4.645779E0,1.3133343E1,4.843836E1],"tree_param":{"num_deleted":"0","num_feature":"43","num_nodes":"33","size_leaf_vector":"0"}},{"base_weights":[4.5525744E-3,-4.1513318E-1,1.0960665E0,1.1106725E0,-9.749962E-1,-1.0143689E0,-1.9116999E-1,1.0638648E0,-1.0210472E0,5.010813E-1,-9.7762084E-1,-1.038546E0,-5.431293E-1,-1.0344318E0,1.4048514E0,-9.934107E-1,-3.3136395E-1,-1.0400866E0,1.2199558E0,-6.9268245E-1,1.1222498E0,-1.0923865E0,-1.0131702E-2,2.3385623E0,1.0563011E0],"categories":[],"categories_nodes":[],"categories_segments":[],"categories_sizes":[],"default_left":[1,1,0,0,1,1,1,0,1,1,1,1,1,1,1,0,0,0,0,0,0,0,0,0,0],"id":17,"left_children":[1,3,-1,-1,5,7,9,-1,11,13,15,17,19,21,23,-1,-1,-1,-1,-1,-1,-1,-1,-1,-1],"loss_changes":[7.7726855E3,1.047011E4,0E0,0E0,2.7651367E2,1.19572266E2,2.3463037E2,0E0,7.060742E1,3.1979752E2,1.728775E0,2.9830078E1,7.616565E1,5.068527E0,4.4663116E1,0E0,0E0,0E0,0E0,0E0,0E0,0E0,0E0,0E0,0E0],"parents":[2147483647,0,0,1,1,4,4,5,5,6,6,8,8,9,9,10,10,11,11,12,12,13,13,14,14],"right_children":[2,4,-1,-1,6,8,10,-1,12,14,16,18,20,22,24,-1,-1,-1,-1,-1,-1,-1,-1,-1,-1],"split_conditions":[2.5E0,5E-1,1.09606646E-1,1.1106725E-1,3.75E1,1.5E0,2.55E1,1.0638648E-1,5E-1,6.5E0,4.75E1,5E-1,3.7948709E0,4.75E1,2.5E0,-9.934107E-2,-3.3136394E-2,-1.0400867E-1,1.2199558E-1,-6.926825E-2,1.1222499E-1,-1.0923865E-1,-1.0131702E-3,2.3385623E-1,1.05630115E-1],"split_indices":[9,26,0,0,0,6,2,0,13,2,0,38,35,0,6,0,0,0,0,0,0,0,0,0,0],"split_type":[0,0,0,0,0,0,0,0,0,0,0,0,0,0,0,0,0,0,0,0,0,0,0,0,0],"sum_hessian":[1.6965496E4,1.2254339E4,4.711158E3,3.2892092E3,8.96513E3,8.536058E3,4.29072E2,2.6835281E1,8.509223E3,2.2839584E2,2.0067616E2,8.207534E3,3.0168802E2,8.4568565E1,1.4382727E2,1.9536565E2,5.310516E0,8.202479E3,5.05586E0,2.773644E2,2.4323603E1,7.997702E1,4.5915446E0,3.7543858E1,1.0628342E2],"tree_param":{"num_deleted":"0","num_feature":"43","num_nodes":"25","size_leaf_vector":"0"}},{"base_weights":[3.4125596E-3,-4.1008824E-1,1.0851487E0,1.0989733E0,-9.565472E-1,1.0857364E0,4.419665E-1,-9.9574655E-1,-1.9040811E-1,1.0513681E0,-1.0024592E0,4.674099E-1,-9.440179E-1,-1.0213745E0,-5.0681645E-1,-9.9956447E-1,1.3085995E0,-9.6468544E-1,-3.3524033E-1,-1.0321227E0,-5.0597703E-1,-6.9415045E-1,1.3317177E0,-1.0584295E0,-1.1067644E-1,2.1657674E0,9.9070084E-1,-9.932176E-1,-7.3279464E-1],"categories":[],"categories_nodes":[],"categories_segments":[],"categories_sizes":[],"default_left":[1,1,1,0,1,0,0,1,1,0,1,1,1,1,1,1,1,1,0,0,0,0,0,0,0,0,0,0,0],"id":18,"left_children":[1,3,5,-1,7,-1,-1,9,11,-1,13,15,17,19,21,23,25,27,-1,-1,-1,-1,-1,-1,-1,-1,-1,-1,-1],"loss_changes":[6.966911E3,9.293252E3,1.1484375E0,0E0,2.4826953E2,0E0,0E0,1.0920264E2,2.0068158E2,0E0,7.303076E1,2.6826932E2,2.0493622E0,4.133252E1,1.0093232E2,4.037903E0,3.5438828E1,4.754486E-1,0E0,0E0,0E0,0E0,0E0,0E0,0E0,0E0,0E0,0E0,0E0],"parents":[2147483647,0,0,1,1,2,2,4,4,7,7,8,8,10,10,11,11,12,12,13,13,14,14,15,15,16,16,17,17],"right_children":[2,4,6,-1,8,-1,-1,10,12,-1,14,16,18,20,22,24,26,28,-1,-1,-1,-1,-1,-1,-1,-1,-1,-1,-1],"split_conditions":[2.5E0,5E-1,5E-1,1.0989733E-1,2.95E1,1.0857364E-1,4.419665E-2,1.5E0,2.55E1,1.0513681E-1,1.0638298E-2,6.5E0,3.85E1,5E-1,5E-1,3.95E1,2.5E0,3.45E1,-3.3524033E-2,-1.03212275E-1,-5.0597705E-2,-6.941505E-2,1.3317178E-1,-1.0584295E-1,-1.1067644E-2,2.1657674E-1,9.907009E-2,-9.932176E-2,-7.327946E-2],"split_indices":[9,26,31,0,1,0,0,6,2,0,14,2,1,34,7,1,6,1,0,0,0,0,0,0,0,0,0,0,0],"split_type":[0,0,0,0,0,0,0,0,0,0,0,0,0,0,0,0,0,0,0,0,0,0,0,0,0,0,0,0,0],"sum_hessian":[1.5573525E4,1.1267188E4,4.306337E3,2.9951067E3,8.272082E3,4.301718E3,4.6188655E0,7.869158E3,4.029236E2,2.5210747E1,7.8439473E3,2.1533754E2,1.8758607E2,7.554581E3,2.8936624E2,7.840921E1,1.3692833E2,1.8086136E2,6.724728E0,7.3992705E3,1.5531064E2,2.6317316E2,2.619309E1,7.336031E1,5.0488935E0,3.5471565E1,1.0145676E2,1.581226E2,2.2738745E1],"tree_param":{"num_deleted":"0","num_feature":"43","num_nodes":"29","size_leaf_vector":"0"}},{"base_weights":[2.1945282E-3,-4.039709E-1,1.0759847E0,1.0886433E0,-9.404837E-1,1.0768865E0,2.5295487E-1,-9.6569973E-1,3.0531853E-1,-1.00132E0,-5.123794E-1,-2.198643E-1,1.0440925E0,1.0370646E0,-1.0081142E0,2.0782018E-1,-9.545856E-1,-3.8185042E-1,1.5190288E0,1.4025596E0,-8.3386725E-1,-1.0184243E0,-5.201387E-1,-9.603478E-1,1.5235113E0,-9.638504E-1,-1.835525E-1,-5.822625E-1,6.61875E-1,2.428991E0,1.1305536E0,-9.983293E-1,-4.4707477E-1],"categories":[],"categories_nodes":[],"categories_segments":[],"categories_sizes":[],"default_left":[1,1,1,0,1,0,0,1,1,1,1,1,1,0,1,1,1,1,0,1,1,0,0,0,0,0,0,0,0,0,0,0,0],"id":19,"left_children":[1,3,5,-1,7,-1,-1,9,11,13,15,17,19,-1,21,23,25,27,-1,29,31,-1,-1,-1,-1,-1,-1,-1,-1,-1,-1,-1,-1],"loss_changes":[6.2250024E3,8.294103E3,2.6347656E0,0E0,2.396167E2,0E0,0E0,1.2006592E2,5.9165672E1,9.691504E1,1.7410597E2,2.5821323E1,4.3775337E1,0E0,3.4183594E1,3.2200186E2,2.24115E0,1.7699585E1,0E0,1.2195923E1,2.3888063E-1,0E0,0E0,0E0,0E0,0E0,0E0,0E0,0E0,0E0,0E0,0E0,0E0],"parents":[2147483647,0,0,1,1,2,2,4,4,7,7,8,8,9,9,10,10,11,11,12,12,14,14,15,15,16,16,17,17,19,19,20,20],"right_children":[2,4,6,-1,8,-1,-1,10,12,14,16,18,20,-1,22,24,26,28,-1,30,32,-1,-1,-1,-1,-1,-1,-1,-1,-1,-1,-1,-1],"split_conditions":[5E-1,5E-1,5E-1,1.0886433E-1,2.5E0,1.0768866E-1,2.5295487E-2,3.55E1,3.814722E0,1.5E0,2.35E1,5E-1,1.55E1,1.0370646E-1,5E-1,6.5E0,8.924607E-1,4.5E0,1.5190288E-1,3.95E1,3.45E1,-1.01842426E-1,-5.201387E-2,-9.603478E-2,1.5235113E-1,-9.638504E-2,-1.835525E-2,-5.8226254E-2,6.61875E-2,2.428991E-1,1.1305536E-1,-9.983293E-2,-4.4707477E-2],"split_indices":[3,26,31,0,13,0,0,0,35,6,2,34,2,0,34,2,16,13,0,0,0,0,0,0,0,0,0,0,0,0,0,0,0],"split_type":[0,0,0,0,0,0,0,0,0,0,0,0,0,0,0,0,0,0,0,0,0,0,0,0,0,0,0,0,0,0,0,0,0],"sum_hessian":[1.4271066E4,1.0354906E4,3.916161E3,2.7376243E3,7.6172812E3,3.9115662E3,4.594711E0,7.466381E3,1.5090056E2,6.9213203E3,5.4506055E2,8.861088E1,6.228969E1,2.248949E1,6.898831E3,2.0755534E2,3.375052E2,8.1773674E1,6.837199E0,5.2518116E1,9.771573E0,6.755022E3,1.4380913E2,1.1008437E2,9.747097E1,3.332508E2,4.254412E0,6.897206E1,1.2801615E1,9.340659E0,4.3177456E1,5.746954E0,4.0246196E0],"tree_param":{"num_deleted":"0","num_feature":"43","num_nodes":"33","size_leaf_vector":"0"}},{"base_weights":[4.431872E-3,-3.9574167E-1,1.0680902E0,1.079413E0,-9.217656E-1,-9.60965E-1,-1.1078155E-1,-9.9350846E-1,-5.5615824E-1,-5.7447135E-1,1.0891924E0,1.0155126E0,-9.9931186E-1,6.286583E-2,-9.2438066E-1,-6.62115E-1,9.8132926E-1,1.5248951E0,-6.1017776E-1,-1.001143E0,1.3535225E0,-9.377624E-1,1.260982E0,-9.354796E-1,-8.192471E-2,-7.6824534E-1,2.8538203E-1,3.8683742E-1,1.8012003E0,2.4515686E0,1.2211639E0,-8.1724507E-1,3.5651322E-2],"categories":[],"categories_nodes":[],"categories_segments":[],"categories_sizes":[],"default_left":[1,1,0,0,1,1,1,1,1,1,1,0,1,1,1,1,1,1,1,0,0,0,0,0,0,0,0,0,0,0,0,0,0],"id":20,"left_children":[1,3,-1,-1,5,7,9,11,13,15,17,-1,19,21,23,25,27,29,31,-1,-1,-1,-1,-1,-1,-1,-1,-1,-1,-1,-1,-1,-1],"loss_changes":[5.5704863E3,7.379986E3,0E0,0E0,2.2275244E2,8.754053E1,1.8110225E2,7.3163086E1,1.1399403E2,3.2639847E1,6.8122406E1,0E0,2.7941406E1,2.258162E2,2.8545227E0,2.2612839E1,5.597744E0,1.7416351E1,2.6011896E0,0E0,0E0,0E0,0E0,0E0,0E0,0E0,0E0,0E0,0E0,0E0,0E0,0E0,0E0],"parents":[2147483647,0,0,1,1,4,4,5,5,6,6,7,7,8,8,9,9,10,10,12,12,13,13,14,14,15,15,16,16,17,17,18,18],"right_children":[2,4,-1,-1,6,8,10,12,14,16,18,-1,20,22,24,26,28,30,32,-1,-1,-1,-1,-1,-1,-1,-1,-1,-1,-1,-1,-1,-1],"split_conditions":[2.5E0,5E-1,1.0680902E-1,1.0794131E-1,5E-1,3.55E1,3.15E1,1.5E0,2.15E1,5E-1,1.9E1,1.0155126E-1,5E-1,6.5E0,5E-1,3.6939812E0,3.3255255E0,2.5E0,1.5707237E-1,-1.001143E-1,1.3535225E-1,-9.377624E-2,1.260982E-1,-9.354796E-2,-8.192471E-3,-7.682454E-2,2.8538203E-2,3.8683742E-2,1.8012004E-1,2.4515687E-1,1.2211639E-1,-8.172451E-2,3.5651324E-3],"split_indices":[9,26,0,0,13,0,0,6,2,34,2,0,39,2,34,35,35,6,18,0,0,0,0,0,0,0,0,0,0,0,0,0,0],"split_type":[0,0,0,0,0,0,0,0,0,0,0,0,0,0,0,0,0,0,0,0,0,0,0,0,0,0,0,0,0,0,0,0,0],"sum_hessian":[1.308508E4,9.508416E3,3.5766643E3,2.4990776E3,7.0093384E3,6.685983E3,3.2335556E2,6.1871294E3,4.9885367E2,2.3360716E2,8.974841E1,1.7320005E1,6.169809E3,1.8637134E2,3.1248233E2,2.2169286E2,1.1914299E1,7.151524E1,1.8233175E1,6.1655854E3,4.224054E0,1.01673874E2,8.469746E1,3.083101E2,4.172243E0,1.9953218E2,2.216068E1,7.759605E0,4.154694E0,1.590824E1,5.5607E1,1.3605519E1,4.6276555E0],"tree_param":{"num_deleted":"0","num_feature":"43","num_nodes":"33","size_leaf_vector":"0"}},{"base_weights":[2.7106926E-3,-3.9118147E-1,1.061042E0,1.0711931E0,-9.06639E-1,1.0615318E0,5.575528E-1,-9.4539815E-1,-1.3178997E-1,1.0624533E0,7.130858E-1,-9.792102E-1,-5.372855E-1,-5.536802E-1,1.1351216E0,2.5782174E-1,9.2252666E-1,1.0079286E0,-9.8536855E-1,-6.146819E-1,1.059058E0,-6.3814026E-1,8.9456767E-1,-7.110518E-2,1.3252233E0,-9.974188E-1,-4.587141E-1,-8.9018375E-1,-3.068358E-1,6.82209E-2,1.3095355E0,-7.073234E-1,4.3457228E-1,1.9666344E-1,1.7191015E0,-9.336398E-1,8.4706E-1,1.0042708E0,1.7296463E0],"categories":[],"categories_nodes":[],"categories_segments":[],"categories_sizes":[],"default_left":[1,1,1,0,1,1,0,1,1,0,1,1,1,1,1,0,0,0,1,1,1,1,1,1,1,0,0,0,0,0,0,0,0,0,0,0,0,0,0],"id":21,"left_children":[1,3,5,-1,7,9,-1,11,13,-1,15,17,19,21,23,-1,-1,-1,25,27,29,31,33,35,37,-1,-1,-1,-1,-1,-1,-1,-1,-1,-1,-1,-1,-1,-1],"loss_changes":[4.9989565E3,6.588467E3,2.1044922E-1,0E0,1.9394873E2,2.8515625E-1,0E0,8.439502E1,1.6579251E2,0E0,8.6904955E-1,7.0526855E1,5.9099533E1,2.9008202E1,1.7870728E1,0E0,0E0,0E0,3.549463E1,3.8047394E1,5.4309387E0,1.6653465E1,7.2736006E0,9.900943E0,6.9621506E0,0E0,0E0,0E0,0E0,0E0,0E0,0E0,0E0,0E0,0E0,0E0,0E0,0E0,0E0],"parents":[2147483647,0,0,1,1,2,2,4,4,5,5,7,7,8,8,10,10,11,11,12,12,13,13,14,14,18,18,19,19,20,20,21,21,22,22,23,23,24,24],"right_children":[2,4,6,-1,8,10,-1,12,14,-1,16,18,20,22,24,-1,-1,-1,26,28,30,32,34,36,38,-1,-1,-1,-1,-1,-1,-1,-1,-1,-1,-1,-1,-1,-1],"split_conditions":[2.5E0,5E-1,5E-1,1.07119314E-1,5E-1,5E-1,5.5755284E-2,3.55E1,3.25E1,1.0624533E-1,1.95E1,1.5E0,5E-1,5E-1,5.5E0,2.5782173E-2,9.2252664E-2,1.0079286E-1,5E-1,5.5E0,3.5E0,3.7948709E0,3.3255255E0,3.55E1,7.409938E-1,-9.974188E-2,-4.587141E-2,-8.9018375E-2,-3.068358E-2,6.82209E-3,1.3095355E-1,-7.073234E-2,4.345723E-2,1.9666344E-2,1.7191015E-1,-9.3363985E-2,8.4706E-2,1.0042708E-1,1.7296463E-1],"split_indices":[9,26,31,0,13,42,0,0,0,0,1,6,34,34,17,0,0,0,34,17,6,35,35,0,16,0,0,0,0,0,0,0,0,0,0,0,0,0,0],"split_type":[0,0,0,0,0,0,0,0,0,0,0,0,0,0,0,0,0,0,0,0,0,0,0,0,0,0,0,0,0,0,0,0,0,0,0,0,0,0,0],"sum_hessian":[1.1989693E4,8.738143E3,3.2515515E3,2.2770312E3,6.461111E3,3.2472837E3,4.26794E0,6.153103E3,3.0800793E2,3.236675E3,1.0608671E1,5.6810317E3,4.720712E2,2.3148486E2,7.652308E1,4.0456324E0,6.563039E0,1.7049154E1,5.663983E3,4.5082837E2,2.1242819E1,2.192574E2,1.2227457E1,1.0503381E1,6.60197E1,5.5364106E3,1.275718E2,2.3691422E2,2.1391415E2,4.5432057E0,1.6699614E1,2.0629343E2,1.29639845E1,7.293006E0,4.934451E0,5.407068E0,5.0963135E0,3.875039E1,2.7269314E1],"tree_param":{"num_deleted":"0","num_feature":"43","num_nodes":"39","size_leaf_vector":"0"}},{"base_weights":[4.75746E-3,-3.82743E-1,1.0534819E0,1.0638942E0,-8.85436E-1,1.0547006E0,1.207552E-1,-9.2815596E-1,-7.7193975E-2,1.0556993E0,6.6772884E-1,-9.6389556E-1,-5.0928104E-1,-4.4111294E-1,1.1403148E0,2.5167552E-1,8.9215624E-1,9.9417746E-1,-9.6970314E-1,7.1931094E-2,-8.93657E-1,-5.5501544E-1,7.436359E-1,1.3916284E0,-4.0428016E-1,-9.715856E-1,1.0823228E0,2.6026537E0,-3.5333794E-1,-9.266116E-1,-5.295713E-1,-6.9298875E-1,6.1690503E-1,2.7348769E0,-2.6096627E-1,6.925247E-2,1.4988472E0,-5.826036E-1,-1.07290015E-1],"categories":[],"categories_nodes":[],"categories_segments":[],"categories_sizes":[],"default_left":[1,1,1,0,1,1,0,1,1,0,1,1,1,1,1,0,0,0,1,1,1,1,1,1,1,0,0,0,0,0,0,0,0,0,0,0,0,0,0],"id":22,"left_children":[1,3,5,-1,7,9,-1,11,13,-1,15,17,19,21,23,-1,-1,-1,25,27,29,31,33,35,37,-1,-1,-1,-1,-1,-1,-1,-1,-1,-1,-1,-1,-1,-1],"loss_changes":[4.4819834E3,5.857446E3,3.2548828E0,0E0,2.0630566E2,4.4384766E-1,0E0,8.4495605E1,1.3393605E2,0E0,7.43875E-1,6.043213E1,1.0024171E2,3.1797401E1,2.7572136E1,0E0,0E0,0E0,2.1194336E1,1.940264E2,2.7486725E0,3.4827263E1,4.237395E1,8.412933E0,4.9419677E-1,0E0,0E0,0E0,0E0,0E0,0E0,0E0,0E0,0E0,0E0,0E0,0E0,0E0,0E0],"parents":[2147483647,0,0,1,1,2,2,4,4,5,5,7,7,8,8,10,10,11,11,12,12,13,13,14,14,18,18,19,19,20,20,21,21,22,22,23,23,24,24],"right_children":[2,4,6,-1,8,10,-1,12,14,-1,16,18,20,22,24,-1,-1,-1,26,28,30,32,34,36,38,-1,-1,-1,-1,-1,-1,-1,-1,-1,-1,-1,-1,-1,-1],"split_conditions":[2.5E0,5E-1,5E-1,1.0638942E-1,5E-1,5E-1,1.207552E-2,3.55E1,3.35E1,1.0556994E-1,5.05E1,1.5E0,2.35E1,5E-1,2.15E1,2.5167553E-2,8.921563E-2,9.9417746E-2,5E-1,2.5E0,3.05E1,1.7316341E-1,8.5E0,6.5E0,3.65E1,-9.715856E-2,1.0823228E-1,2.6026538E-1,-3.5333794E-2,-9.2661165E-2,-5.295713E-2,-6.929888E-2,6.1690506E-2,2.734877E-1,-2.6096627E-2,6.925247E-3,1.4988473E-1,-5.826036E-2,-1.0729002E-2],"split_indices":[9,26,31,0,13,41,0,0,0,0,0,6,2,7,2,0,0,0,38,6,2,14,2,2,0,0,0,0,0,0,0,0,0,0,0,0,0,0,0],"split_type":[0,0,0,0,0,0,0,0,0,0,0,0,0,0,0,0,0,0,0,0,0,0,0,0,0,0,0,0,0,0,0,0,0,0,0,0,0,0,0],"sum_hessian":[1.102702E4,8.0523394E3,2.9746797E3,2.0762483E3,5.9760913E3,2.9706675E3,4.0121813E0,5.675939E3,3.001526E2,2.9612961E3,9.371316E0,5.228525E3,4.4741376E2,2.3157227E2,6.8580315E1,4.027104E0,5.3442116E0,1.4958485E1,5.2135664E3,1.7842758E2,2.6898618E2,2.1174637E2,1.9825903E1,5.906859E1,9.51173E0,5.2093145E3,4.2523174E0,2.4933205E1,1.5349438E2,2.4524335E2,2.3742826E1,1.898084E2,2.1937971E1,6.0707016E0,1.37552E1,4.553553E0,5.4515034E1,5.342319E0,4.169411E0],"tree_param":{"num_deleted":"0","num_feature":"43","num_nodes":"39","size_leaf_vector":"0"}},{"base_weights":[3.7905537E-3,-3.770535E-1,1.0478513E0,1.0573357E0,-8.694431E-1,1.0488169E0,3.2231352E-1,-9.1131026E-1,-9.32252E-2,1.0499105E0,6.642868E-1,-9.487342E-1,-4.8533309E-1,-4.5668104E-1,1.0089349E0,1.0506551E0,5.602399E-1,2.4747887E-1,8.8932896E-1,9.82946E-1,-9.5445895E-1,9.3044855E-2,-8.776818E-1,-5.416587E-1,7.923107E-1,1.3474836E0,-4.4217962E-1,-9.686428E-1,-3.704642E-1,-8.9021474E-1,1.1772032E0,-9.009039E-1,4.248217E-1,-6.3143474E-1,4.688804E-1,3.7317675E-1,1.3659939E0,-3.1703845E-2,1.5078653E0,-6.5689117E-1,4.6227828E-2],"categories":[],"categories_nodes":[],"categories_segments":[],"categories_sizes":[],"default_left":[1,1,1,0,1,1,0,1,1,1,1,1,1,1,1,0,0,0,0,0,1,1,1,1,1,1,1,0,0,0,0,0,0,0,0,0,0,0,0,0,0],"id":23,"left_children":[1,3,5,-1,7,9,-1,11,13,15,17,19,21,23,25,-1,-1,-1,-1,-1,27,29,31,33,35,37,39,-1,-1,-1,-1,-1,-1,-1,-1,-1,-1,-1,-1,-1,-1],"loss_changes":[4.0122417E3,5.222842E3,1.5517578E0,0E0,1.7880664E2,4.3481445E-1,0E0,8.280176E1,1.1375781E2,3.9013672E-1,7.516265E-1,5.4018066E1,9.6262375E1,2.3076351E1,3.520585E1,0E0,0E0,0E0,0E0,0E0,3.9288086E1,1.8462839E2,8.023972E0,1.8474937E1,2.856266E0,1.2737808E1,1.5068705E0,0E0,0E0,0E0,0E0,0E0,0E0,0E0,0E0,0E0,0E0,0E0,0E0,0E0,0E0],"parents":[2147483647,0,0,1,1,2,2,4,4,5,5,7,7,8,8,9,9,10,10,11,11,12,12,13,13,14,14,20,20,21,21,22,22,23,23,24,24,25,25,26,26],"right_children":[2,4,6,-1,8,10,-1,12,14,16,18,20,22,24,26,-1,-1,-1,-1,-1,28,30,32,34,36,38,40,-1,-1,-1,-1,-1,-1,-1,-1,-1,-1,-1,-1,-1,-1],"split_conditions":[2.5E0,5E-1,5E-1,1.0573357E-1,5E-1,5E-1,3.2231353E-2,3.55E1,3.25E1,3.1698564E-1,7.3746866E-1,1.5E0,1.95E1,5E-1,1.75E1,1.0506552E-1,5.6023993E-2,2.4747888E-2,8.8932894E-2,9.82946E-2,5E-1,6.5E0,5E-1,5E-1,6.9098145E-1,6.5E0,1.644144E-1,-9.6864276E-2,-3.704642E-2,-8.9021474E-2,1.1772032E-1,-9.009039E-2,4.248217E-2,-6.314348E-2,4.688804E-2,3.7317675E-2,1.3659939E-1,-3.1703846E-3,1.5078653E-1,-6.568912E-2,4.622783E-3],"split_indices":[9,26,31,0,13,41,0,0,0,18,16,6,2,34,2,0,0,0,0,0,34,2,34,7,16,2,18,0,0,0,0,0,0,0,0,0,0,0,0,0,0],"split_type":[0,0,0,0,0,0,0,0,0,0,0,0,0,0,0,0,0,0,0,0,0,0,0,0,0,0,0,0,0,0,0,0,0,0,0,0,0,0,0,0,0],"sum_hessian":[1.0088541E4,7.3925757E3,2.6959653E3,1.8888844E3,5.5036914E3,2.6919368E3,4.028426E0,5.221864E3,2.818279E2,2.6825774E3,9.359527E0,4.7990215E3,4.228421E2,2.1237825E2,6.944965E1,2.6773608E3,5.216382E0,4.0177746E0,5.3417525E0,1.3675921E1,4.7853457E3,1.7121281E2,2.5162929E2,1.993794E2,1.2998849E1,5.636984E1,1.3079815E1,4.671234E3,1.1411152E2,8.9878174E1,8.133465E1,2.4752454E2,4.1047473E0,1.8345633E2,1.5923071E1,8.464883E0,4.5339665E0,5.9558015E0,5.0414036E1,8.846006E0,4.233809E0],"tree_param":{"num_deleted":"0","num_feature":"43","num_nodes":"41","size_leaf_vector":"0"}},{"base_weights":[3.0616361E-3,-3.7303045E-1,1.0428623E0,1.0514872E0,-8.541185E-1,1.0436671E0,5.6995094E-1,-8.9708036E-1,-9.823487E-2,-9.1960377E-1,-8.986684E-2,-4.4679087E-1,9.706788E-1,-9.64896E-1,-6.1964047E-1,-4.9742463E-1,1.1362573E0,-5.709705E-1,5.111909E-1,1.3314651E0,-4.954089E-1,9.6252465E-1,-9.7042584E-1,-4.409826E-2,-8.962934E-1,-7.956906E-1,-1.8809136E-2,1.7811416E0,-3.6638677E-1,-6.8242705E-1,5.0218314E-1,8.241563E-1,-8.508901E-1,-8.183827E-2,1.5170382E0,-1.2282523E-1,-8.771306E-1],"categories":[],"categories_nodes":[],"categories_segments":[],"categories_sizes":[],"default_left":[1,1,1,0,1,0,0,1,1,1,1,1,1,1,1,1,1,1,1,1,1,0,0,0,0,0,0,0,0,0,0,0,0,0,0,0,0],"id":24,"left_children":[1,3,5,-1,7,-1,-1,9,11,13,15,17,19,21,23,25,27,29,31,33,35,-1,-1,-1,-1,-1,-1,-1,-1,-1,-1,-1,-1,-1,-1,-1,-1],"loss_changes":[3.6128967E3,4.650587E3,3.3911133E-1,0E0,1.646333E2,0E0,0E0,8.717822E1,1.0248828E2,6.2836426E1,6.622371E1,2.4946083E1,3.6453907E1,4.415088E1,9.793326E1,1.41618E1,3.2711037E1,2.2343239E1,1.1063921E1,1.4438416E1,1.896632E0,0E0,0E0,0E0,0E0,0E0,0E0,0E0,0E0,0E0,0E0,0E0,0E0,0E0,0E0,0E0,0E0],"parents":[2147483647,0,0,1,1,2,2,4,4,7,7,8,8,9,9,10,10,11,11,12,12,13,13,14,14,15,15,16,16,17,17,18,18,19,19,20,20],"right_children":[2,4,6,-1,8,-1,-1,10,12,14,16,18,20,22,24,26,28,30,32,34,36,-1,-1,-1,-1,-1,-1,-1,-1,-1,-1,-1,-1,-1,-1,-1,-1],"split_conditions":[2.5E0,5E-1,3.1698564E-1,1.05148725E-1,5E-1,1.0436671E-1,5.6995094E-2,5E-1,3.25E1,3.35E1,3.586269E0,1.7316341E-1,1.75E1,5E-1,2.05E1,1.95E1,3.5E0,5E-1,2.3904762E-1,6.5E0,2.25E1,9.6252464E-2,-9.704258E-2,-4.4098264E-3,-8.9629345E-2,-7.9569064E-2,-1.8809136E-3,1.7811416E-1,-3.6638677E-2,-6.824271E-2,5.0218314E-2,8.241563E-2,-8.508901E-2,-8.183828E-3,1.5170382E-1,-1.2282523E-2,-8.771306E-2],"split_indices":[9,26,18,0,13,0,0,34,0,0,35,14,2,24,2,15,33,7,18,2,2,0,0,0,0,0,0,0,0,0,0,0,0,0,0,0,0],"split_type":[0,0,0,0,0,0,0,0,0,0,0,0,0,0,0,0,0,0,0,0,0,0,0,0,0,0,0,0,0,0,0,0,0,0,0,0,0],"sum_hessian":[9.236714E3,6.783712E3,2.4530024E3,1.7123124E3,5.0713994E3,2.4476301E3,5.372524E0,4.7984834E3,2.7291595E2,4.668092E3,1.3039154E2,2.0624477E2,6.667117E1,4.0537832E3,6.1430853E2,9.8308556E1,3.208298E1,1.8293552E2,2.3309261E1,5.3578087E1,1.3093089E1,1.1102045E1,4.0426812E3,1.9980284E2,4.1450568E2,6.015708E1,3.8151474E1,2.2319056E1,9.7639265E0,1.6605347E2,1.6882044E1,1.9275303E1,4.0339584E0,6.2834044E0,4.729468E1,7.294742E0,5.7983465E0],"tree_param":{"num_deleted":"0","num_feature":"43","num_nodes":"37","size_leaf_vector":"0"}},{"base_weights":[1.741063E-3,-3.677532E-1,1.0370748E0,1.0462396E0,-8.376694E-1,1.0392866E0,6.414639E-1,-8.8197404E-1,-7.6601095E-2,3.4014967E-3,9.4049394E-1,-9.22811E-1,-4.460639E-1,-4.729309E-1,8.2829624E-1,9.673334E-1,-9.2877454E-1,6.9898285E-2,-8.183544E-1,-5.653884E-1,6.803388E-1,1.4577854E0,-4.7051212E-1,-9.4397575E-1,-3.6140984E-1,-8.618566E-1,1.0826873E0,-8.4103924E-1,2.1660529E-1,-6.7790216E-1,2.8806233E-1,2.1285845E-1,1.2062145E0,-2.567674E-1,1.675487E0,2.7269593E-2,-8.143778E-1],"categories":[],"categories_nodes":[],"categories_segments":[],"categories_sizes":[],"default_left":[1,1,1,0,1,0,1,1,1,0,0,1,1,1,1,0,1,1,1,1,1,1,1,0,0,0,0,0,0,0,0,0,0,0,0,0,0],"id":25,"left_children":[1,3,5,-1,7,-1,9,11,13,-1,-1,15,17,19,21,-1,23,25,27,29,31,33,35,-1,-1,-1,-1,-1,-1,-1,-1,-1,-1,-1,-1,-1,-1],"loss_changes":[3.245968E3,4.1559746E3,1.2858887E0,0E0,1.5821191E2,0E0,2.8626757E0,7.855054E1,9.339499E1,0E0,0E0,4.6605225E1,7.3414246E1,1.9681736E1,6.556024E1,0E0,3.4525146E1,1.528481E2,5.392151E0,1.6336044E1,3.1568775E0,2.0470367E1,4.5854654E0,0E0,0E0,0E0,0E0,0E0,0E0,0E0,0E0,0E0,0E0,0E0,0E0,0E0,0E0],"parents":[2147483647,0,0,1,1,2,2,4,4,6,6,7,7,8,8,11,11,12,12,13,13,14,14,16,16,17,17,18,18,19,19,20,20,21,21,22,22],"right_children":[2,4,6,-1,8,-1,10,12,14,-1,-1,16,18,20,22,-1,24,26,28,30,32,34,36,-1,-1,-1,-1,-1,-1,-1,-1,-1,-1,-1,-1,-1,-1],"split_conditions":[2.5E0,5E-1,2.989362E-1,1.04623966E-1,8.196721E-3,1.0392866E-1,2.8458953E0,3.55E1,3.6911273E0,3.4014968E-4,9.4049394E-2,1.5E0,1.65E1,5E-1,1.55E1,9.673334E-2,5E-1,6.5E0,5E-1,1.7316341E-1,3.3255255E0,6.5E0,6.350806E-2,-9.4397575E-2,-3.6140986E-2,-8.618566E-2,1.0826873E-1,-8.410393E-2,2.166053E-2,-6.779022E-2,2.8806234E-2,2.1285845E-2,1.2062146E-1,-2.567674E-2,1.675487E-1,2.7269593E-3,-8.143778E-2],"split_indices":[9,26,18,0,14,0,35,0,35,0,0,6,2,34,2,0,34,2,34,14,35,2,14,0,0,0,0,0,0,0,0,0,0,0,0,0,0],"split_type":[0,0,0,0,0,0,0,0,0,0,0,0,0,0,0,0,0,0,0,0,0,0,0,0,0,0,0,0,0,0,0,0,0,0,0,0,0],"sum_hessian":[8.483087E3,6.2523623E3,2.2307246E3,1.5592632E3,4.693099E3,2.2167043E3,1.4020324E1,4.434776E3,2.5832364E2,4.796677E0,9.223647E0,4.0538826E3,3.808932E2,1.7997499E2,7.834865E1,1.2243074E1,4.0416394E3,1.5998299E2,2.2091022E2,1.6708922E2,1.2885772E1,5.2689434E1,2.5659212E1,3.935532E3,1.06107315E2,8.340256E1,7.658042E1,2.163554E2,4.5548267E0,1.478087E2,1.9280506E1,7.565312E0,5.32046E0,5.9161525E0,4.677328E1,1.0859557E1,1.4799656E1],"tree_param":{"num_deleted":"0","num_feature":"43","num_nodes":"37","size_leaf_vector":"0"}},{"base_weights":[2.4400887E-3,-3.6214212E-1,1.03253E0,1.0415056E0,-8.225538E-1,1.0349548E0,6.002066E-1,-8.6644983E-1,-9.8682724E-2,-6.903626E-2,9.266502E-1,-9.2218983E-1,-5.17488E-1,-3.758029E-1,9.7089005E-1,9.4940937E-1,-9.279632E-1,5.058166E-2,-8.365827E-1,-4.3030262E-1,1.5606749E0,1.1833589E0,-6.428154E-1,-9.447247E-1,-3.5766765E-1,2.8926353E0,-3.2676747E-1,-8.6722773E-1,-3.0027935E-1,-6.6784877E-1,4.4042327E-2,1.5800878E-1,1.3054811E0],"categories":[],"categories_nodes":[],"categories_segments":[],"categories_sizes":[],"default_left":[1,1,1,0,1,0,1,1,1,0,0,1,1,1,1,0,1,1,1,1,0,1,0,0,0,0,0,0,0,0,0,0,0],"id":26,"left_children":[1,3,5,-1,7,-1,9,11,13,-1,-1,15,17,19,21,-1,23,25,27,29,-1,31,-1,-1,-1,-1,-1,-1,-1,-1,-1,-1,-1],"loss_changes":[2.9134307E3,3.7037566E3,1.5048828E0,0E0,1.3702734E2,0E0,3.0551023E0,7.865527E1,7.382447E1,0E0,0E0,3.8772217E1,1.02024765E2,2.1521574E1,1.8342308E1,0E0,3.3083984E1,2.1897433E2,5.661194E0,2.1769245E1,0E0,5.5117836E0,0E0,0E0,0E0,0E0,0E0,0E0,0E0,0E0,0E0,0E0,0E0],"parents":[2147483647,0,0,1,1,2,2,4,4,6,6,7,7,8,8,11,11,12,12,13,13,14,14,16,16,17,17,18,18,19,19,21,21],"right_children":[2,4,6,-1,8,-1,10,12,14,-1,-1,16,18,20,22,-1,24,26,28,30,-1,32,-1,-1,-1,-1,-1,-1,-1,-1,-1,-1,-1],"split_conditions":[2.5E0,5E-1,2.989362E-1,1.04150556E-1,5E-1,1.0349548E-1,2.8458953E0,3.35E1,3.35E1,-6.903626E-3,9.2665024E-2,1.5E0,2.15E1,1.5E0,2.25E1,9.494094E-2,5E-1,2.5E0,4.25E1,1.09126985E-1,1.5606749E-1,6.5E0,-6.4281546E-2,-9.447247E-2,-3.5766765E-2,2.8926355E-1,-3.267675E-2,-8.672278E-2,-3.0027935E-2,-6.678488E-2,4.404233E-3,1.5800878E-2,1.305481E-1],"split_indices":[9,26,18,0,13,0,35,0,0,0,0,6,2,7,2,0,34,6,0,14,0,2,0,0,0,0,0,0,0,0,0,0,0],"split_type":[0,0,0,0,0,0,0,0,0,0,0,0,0,0,0,0,0,0,0,0,0,0,0,0,0,0,0,0,0,0,0,0,0],"sum_hessian":[7.755724E3,5.728774E3,2.0269503E3,1.4146616E3,4.3141123E3,2.014259E3,1.2691253E1,4.0672732E3,2.4683925E2,4.4194493E0,8.271803E0,3.5056672E3,5.6160583E2,1.9656026E2,5.0278996E1,1.0278156E1,3.4953892E3,2.0230067E2,3.5930515E2,1.9193625E2,4.6240125E0,4.4664867E1,5.6141257E0,3.394952E3,1.0043728E2,2.2930555E1,1.7937012E2,3.3930008E2,2.0005066E1,1.27618515E2,6.431773E1,4.9976816E0,3.9667187E1],"tree_param":{"num_deleted":"0","num_feature":"43","num_nodes":"33","size_leaf_vector":"0"}},{"base_weights":[3.3437866E-3,-3.5443208E-1,1.0289124E0,1.0372522E0,-8.033558E-1,1.0310298E0,6.511195E-1,-8.4801537E-1,-9.127054E-2,1.20155856E-1,9.1380435E-1,-9.0381396E-1,-5.065691E-1,-4.92319E-1,6.424329E-1,-9.236869E-1,-2.683202E-1,1.8408855E-2,-8.1694055E-1,4.1620368E-1,-6.6989595E-1,-7.0523304E-1,1.0624694E0,9.2535824E-1,-9.288994E-1,-4.893116E-1,1.0843558E0,2.672329E0,-3.5821164E-1,-8.3241785E-1,6.313101E-2,7.72961E-1,-9.346988E-1,-8.860617E-1,-4.603576E-1,3.866163E-1,-9.987112E-1,-3.4918475E-1,1.3604109E0],"categories":[],"categories_nodes":[],"categories_segments":[],"categories_sizes":[],"default_left":[1,1,1,0,1,0,1,1,1,0,0,1,1,1,1,1,1,1,1,1,1,1,1,0,0,0,0,0,0,0,0,0,0,0,0,0,0,0,0],"id":27,"left_children":[1,3,5,-1,7,-1,9,11,13,-1,-1,15,17,19,21,23,25,27,29,31,33,35,37,-1,-1,-1,-1,-1,-1,-1,-1,-1,-1,-1,-1,-1,-1,-1,-1],"loss_changes":[2.6120654E3,3.298119E3,8.015137E-1,0E0,1.2684277E2,0E0,1.6999698E0,7.109009E1,6.9951294E1,0E0,0E0,4.0501465E1,8.63347E1,2.505624E1,4.834001E1,3.1010986E1,3.019959E1,1.9867456E2,4.5878143E0,1.312148E1,5.4284744E0,6.980033E0,2.76007E1,0E0,0E0,0E0,0E0,0E0,0E0,0E0,0E0,0E0,0E0,0E0,0E0,0E0,0E0,0E0,0E0],"parents":[2147483647,0,0,1,1,2,2,4,4,6,6,7,7,8,8,11,11,12,12,13,13,14,14,15,15,16,16,17,17,18,18,19,19,20,20,21,21,22,22],"right_children":[2,4,6,-1,8,-1,10,12,14,-1,-1,16,18,20,22,24,26,28,30,32,34,36,38,-1,-1,-1,-1,-1,-1,-1,-1,-1,-1,-1,-1,-1,-1,-1,-1],"split_conditions":[5E-1,5E-1,2.989362E-1,1.0372522E-1,5E-1,1.0310298E-1,2.8458953E0,3.35E1,5.5E0,1.2015586E-2,9.138044E-2,5E-1,2.15E1,6.220238E-1,3.469376E0,1.5E0,3.586269E0,2.5E0,5E-1,2.4404761E-1,3.3768916E0,4.2572465E-2,6.5E0,9.253582E-2,-9.288994E-2,-4.8931163E-2,1.08435586E-1,2.672329E-1,-3.5821166E-2,-8.324178E-2,6.3131014E-3,7.72961E-2,-9.346988E-2,-8.860617E-2,-4.6035763E-2,3.866163E-2,-9.987112E-2,-3.4918476E-2,1.3604109E-1],"split_indices":[3,26,18,0,13,0,35,0,17,0,0,34,2,16,35,6,35,6,34,18,35,14,2,0,0,0,0,0,0,0,0,0,0,0,0,0,0,0,0],"split_type":[0,0,0,0,0,0,0,0,0,0,0,0,0,0,0,0,0,0,0,0,0,0,0,0,0,0,0,0,0,0,0,0,0,0,0,0,0,0,0],"sum_hessian":[7.1168306E3,5.2766826E3,1.8401483E3,1.2866616E3,3.9900208E3,1.8281727E3,1.1975476E1,3.7543687E3,2.3565202E2,4.4460707E0,7.529406E0,3.2255994E3,5.287694E2,1.5257968E2,8.3072334E1,3.1273486E3,9.825076E1,1.9681212E2,3.319573E2,2.472702E1,1.2785267E2,1.9578075E1,6.349426E1,8.29507E0,3.1190535E3,8.500196E1,1.3248801E1,2.3701305E1,1.7311081E2,3.2627347E2,5.6838226E0,1.9899593E1,4.8274283E0,6.1341923E1,6.651074E1,4.0803347E0,1.5497742E1,1.1035555E1,5.2458706E1],"tree_param":{"num_deleted":"0","num_feature":"43","num_nodes":"39","size_leaf_vector":"0"}},{"base_weights":[6.9751367E-3,-3.428299E-1,1.0245248E0,1.0334306E0,-7.768443E-1,1.0274376E0,5.683041E-1,-8.4008956E-1,-2.1078676E-1,-2.34396E-2,9.0647054E-1,-8.636511E-1,1.3662496E-1,-5.655464E-1,3.210172E-1,1.0511308E0,-8.7044066E-1,2.6395053E-3,1.1941736E0,-6.6908896E-1,9.1965723E-1,1.324368E-1,1.1387675E0,-9.091537E-1,-5.975668E-1,-1.18277915E-1,9.876276E-1,-7.9552895E-1,-1.8435672E-2,-9.099544E-1,1.7278413E0,2.0422426E-3,1.0107595E0,1.5653318E0,7.7933586E-1],"categories":[],"categories_nodes":[],"categories_segments":[],"categories_sizes":[],"default_left":[1,1,1,0,1,0,1,1,1,0,0,1,1,1,1,0,1,1,0,1,1,1,1,0,0,0,0,0,0,0,0,0,0,0,0],"id":28,"left_children":[1,3,5,-1,7,-1,9,11,13,-1,-1,15,17,19,21,-1,23,25,-1,27,29,31,33,-1,-1,-1,-1,-1,-1,-1,-1,-1,-1,-1,-1],"loss_changes":[2.330386E3,2.911029E3,1.6419678E0,0E0,1.3245044E2,0E0,2.5953193E0,7.679639E1,7.06757E1,0E0,0E0,4.3213867E1,1.1240197E1,3.5138847E1,2.3004875E1,0E0,3.3711914E1,8.624045E0,0E0,1.7298325E1,2.3829325E1,1.4101968E1,3.0740776E0,0E0,0E0,0E0,0E0,0E0,0E0,0E0,0E0,0E0,0E0,0E0,0E0],"parents":[2147483647,0,0,1,1,2,2,4,4,6,6,7,7,8,8,11,11,12,12,13,13,14,14,16,16,17,17,19,19,20,20,21,21,22,22],"right_children":[2,4,6,-1,8,-1,10,12,14,-1,-1,16,18,20,22,-1,24,26,-1,28,30,32,34,-1,-1,-1,-1,-1,-1,-1,-1,-1,-1,-1,-1],"split_conditions":[5E-1,5E-1,2.989362E-1,1.0334306E-1,5E-1,1.0274376E-1,2.8458953E0,2.5E0,2.45E1,-2.3439599E-3,9.064706E-2,1.5E0,5E-1,5E-1,5E-1,1.0511308E-1,2.55E1,5.5E0,1.1941736E-1,3.6972356E0,3.4063423E0,5E-1,2.5E0,-9.0915374E-2,-5.9756678E-2,-1.1827792E-2,9.8762766E-2,-7.95529E-2,-1.8435672E-3,-9.0995446E-2,1.7278413E-1,2.0422426E-4,1.0107595E-1,1.5653318E-1,7.793359E-2],"split_indices":[3,26,18,0,7,0,35,13,1,0,0,6,34,34,13,0,1,13,0,35,35,34,13,0,0,0,0,0,0,0,0,0,0,0,0],"split_type":[0,0,0,0,0,0,0,0,0,0,0,0,0,0,0,0,0,0,0,0,0,0,0,0,0,0,0,0,0,0,0,0,0,0,0],"sum_hessian":[6.5450713E3,4.8711646E3,1.6739067E3,1.1675333E3,3.7036313E3,1.6620433E3,1.1863421E1,3.3309792E3,3.72652E2,4.652641E0,7.210781E0,3.252631E3,7.834831E1,2.2349673E2,1.4915526E2,1.0949184E1,3.241682E3,7.042798E1,7.920333E0,2.0944458E2,1.405216E1,1.2214866E2,2.7006603E1,2.8368777E3,4.0480405E2,6.351124E1,6.916738E0,1.7517964E2,3.426493E1,4.266805E0,9.785356E0,1.07231544E2,1.4917119E1,1.0815739E1,1.6190863E1],"tree_param":{"num_deleted":"0","num_feature":"43","num_nodes":"35","size_leaf_vector":"0"}},{"base_weights":[6.2445444E-3,-3.3563048E-1,1.0209548E0,1.0299816E0,-7.580847E-1,1.0234792E0,4.47135E-1,-8.0761683E-1,-2.8132292E-2,-8.14358E-1,2.3433173E0,-3.9940688E-1,6.7014045E-1,-8.410356E-1,-5.020137E-2,-4.9933586E-1,7.010273E-1,-2.3445932E-2,1.0717305E0,-9.032899E-1,-5.6535625E-1,-4.5637536E-1,6.8143976E-1,-6.24782E-1,2.2864056E-1,2.6414964E-1,1.2357277E0,-3.599396E-1,3.202681E-1,1.9838825E0,9.452135E-1],"categories":[],"categories_nodes":[],"categories_segments":[],"categories_sizes":[],"default_left":[1,1,1,0,1,0,0,1,1,1,0,1,1,1,1,1,1,1,1,0,0,0,0,0,0,0,0,0,0,0,0],"id":29,"left_children":[1,3,5,-1,7,-1,-1,9,11,13,-1,15,17,19,21,23,25,27,29,-1,-1,-1,-1,-1,-1,-1,-1,-1,-1,-1,-1],"loss_changes":[2.0889512E3,2.5992778E3,1.7406006E0,0E0,1.24375244E2,0E0,0E0,7.034473E1,5.7216454E1,6.5513916E1,0E0,1.618943E1,2.1368576E1,5.2816406E1,3.2864227E1,1.2255104E1,2.5718765E0,3.4782403E0,3.7276115E0,0E0,0E0,0E0,0E0,0E0,0E0,0E0,0E0,0E0,0E0,0E0,0E0],"parents":[2147483647,0,0,1,1,2,2,4,4,7,7,8,8,9,9,11,11,12,12,13,13,14,14,15,15,16,16,17,17,18,18],"right_children":[2,4,6,-1,8,-1,-1,10,12,14,-1,16,18,20,22,24,26,28,30,-1,-1,-1,-1,-1,-1,-1,-1,-1,-1,-1,-1],"split_conditions":[2.5E0,5E-1,5E-1,1.0299816E-1,5E-1,1.02347925E-1,4.47135E-2,5E-1,3.6721556E0,5E-1,2.3433173E-1,5E-1,5.5E0,3.25E1,3.5050745E0,1.7316341E-1,3.3255255E0,3.7948709E0,2.85E1,-9.032899E-2,-5.6535628E-2,-4.5637537E-2,6.814398E-2,-6.2478203E-2,2.2864057E-2,2.6414964E-2,1.2357277E-1,-3.599396E-2,3.202681E-2,1.9838826E-1,9.452135E-2],"split_indices":[9,26,41,0,13,0,0,38,35,34,0,34,17,0,35,14,35,35,0,0,0,0,0,0,0,0,0,0,0,0,0],"split_type":[0,0,0,0,0,0,0,0,0,0,0,0,0,0,0,0,0,0,0,0,0,0,0,0,0,0,0,0,0,0,0],"sum_hessian":[6.019709E3,4.5031743E3,1.5165349E3,1.0635946E3,3.4395796E3,1.5091123E3,7.4226127E0,3.2209128E3,2.1866672E2,3.2147766E3,6.136168E0,1.4303984E2,7.5626884E1,3.106234E3,1.08542816E2,1.3163268E2,1.1407152E1,2.8076889E1,4.7549995E1,2.5321445E3,5.7408936E2,7.003744E1,3.850538E1,1.1240467E2,1.922801E1,7.100056E0,4.307096E0,1.4163609E1,1.3913281E1,4.003695E0,4.35463E1],"tree_param":{"num_deleted":"0","num_feature":"43","num_nodes":"31","size_leaf_vector":"0"}},{"base_weights":[6.7003737E-3,-3.2867426E-1,1.0176383E0,1.0268475E0,-7.3608524E-1,1.0211781E0,4.7832608E-1,-8.213518E-1,-2.8166333E-1,-1.390464E-1,8.7935734E-1,-8.516589E-1,-6.155773E-2,3.5088685E-1,-7.4902606E-1,-8.8381135E-1,-3.458894E-1,-3.6502817E-1,7.195271E-1,-6.5608233E-1,1.2662733E0,-7.8756034E-1,-1.2163441E-1,9.1957986E-1,-8.901384E-1,3.2484102E-1,-4.9496466E-1,-1.5183878E-1,-8.96046E-1,3.3532872E0,-1.9815426E-1,-9.683718E-1,-4.1540363E-1,1.4476478E0,-1.4307023E0,-8.076756E-1,1.0974424E-1,-5.47653E-1,6.1636037E-1],"categories":[],"categories_nodes":[],"categories_segments":[],"categories_sizes":[],"default_left":[1,1,1,0,1,0,1,1,1,0,0,1,1,1,1,1,1,1,1,1,1,1,1,0,0,0,0,0,0,0,0,0,0,0,0,0,0,0,0],"id":30,"left_children":[1,3,5,-1,7,-1,9,11,13,-1,-1,15,17,19,21,23,25,27,29,31,33,35,37,-1,-1,-1,-1,-1,-1,-1,-1,-1,-1,-1,-1,-1,-1,-1,-1],"loss_changes":[1.8777714E3,2.2974722E3,2.1453857E0,0E0,1.2369299E2,0E0,2.8153834E0,6.194702E1,1.5009639E2,0E0,0E0,4.179773E1,2.499895E1,1.9996579E2,6.958557E0,2.8587646E1,1.5798933E1,8.447319E0,7.205327E1,7.379257E0,5.759381E1,5.0472565E0,6.0179205E0,0E0,0E0,0E0,0E0,0E0,0E0,0E0,0E0,0E0,0E0,0E0,0E0,0E0,0E0,0E0,0E0],"parents":[2147483647,0,0,1,1,2,2,4,4,6,6,7,7,8,8,11,11,12,12,13,13,14,14,15,15,16,16,17,17,18,18,19,19,20,20,21,21,22,22],"right_children":[2,4,6,-1,8,-1,10,12,14,-1,-1,16,18,20,22,24,26,28,30,32,34,36,38,-1,-1,-1,-1,-1,-1,-1,-1,-1,-1,-1,-1,-1,-1,-1,-1],"split_conditions":[2.5E0,5E-1,2.989362E-1,1.0268475E-1,3.35E1,1.02117814E-1,5E-1,5E-1,2.15E1,-1.390464E-2,8.793574E-2,5E-1,3.4949145E0,6.5E0,4.25E1,1.5E0,7.5E0,2.3904762E-1,1.35E1,5.5E0,5E-1,5E-1,1.3794926E-1,9.195799E-2,-8.901384E-2,3.2484103E-2,-4.949647E-2,-1.5183878E-2,-8.96046E-2,3.3532873E-1,-1.9815426E-2,-9.6837185E-2,-4.1540366E-2,1.4476478E-1,-1.4307024E-1,-8.0767564E-2,1.0974425E-2,-5.4765303E-2,6.1636038E-2],"split_indices":[9,26,18,0,0,0,13,34,2,0,0,13,35,2,0,6,2,18,2,2,41,34,18,0,0,0,0,0,0,0,0,0,0,0,0,0,0,0,0],"split_type":[0,0,0,0,0,0,0,0,0,0,0,0,0,0,0,0,0,0,0,0,0,0,0,0,0,0,0,0,0,0,0,0,0,0,0,0,0,0,0],"sum_hessian":[5.5364604E3,4.1578013E3,1.3786592E3,9.6050995E2,3.1972915E3,1.3687817E3,9.877495E0,2.691464E3,5.0582733E2,4.1468515E0,5.7306433E0,2.5881077E3,1.0335664E2,2.150364E2,2.9079092E2,2.4327095E3,1.553982E2,7.481994E1,2.85367E1,1.0253082E2,1.1250558E2,2.7372357E2,1.7067358E1,8.000451E0,2.424709E3,2.8043549E1,1.27354645E2,5.4304203E1,2.0515741E1,6.6879864E0,2.1848713E1,4.3310432E1,5.9220394E1,1.05850266E2,6.65531E0,2.6781964E2,5.903932E0,1.0984379E1,6.08298E0],"tree_param":{"num_deleted":"0","num_feature":"43","num_nodes":"39","size_leaf_vector":"0"}},{"base_weights":[5.70042E-3,-3.227585E-1,1.0152925E0,1.0240283E0,-7.1946424E-1,1.0191886E0,4.5116818E-1,-8.0309695E-1,-2.8760248E-1,-1.6359845E-1,8.6789775E-1,-8.348554E-1,-6.2085908E-2,3.0452806E-1,-7.174325E-1,-8.6936665E-1,-3.2481655E-1,-3.3802623E-1,5.8613324E-1,-6.200346E-1,1.1839007E0,-7.541114E-1,-1.5665464E-1,9.0132797E-1,-8.7526906E-1,-4.3385312E-1,6.521757E-1,-4.2843097E-1,9.05498E-1,2.4762983E0,-2.936912E-1,-9.1709524E-1,-3.952256E-1,1.3589342E0,-1.3952543E0,-7.710191E-1,-2.8844988E-2,-5.842942E-1,4.43993E-1],"categories":[],"categories_nodes":[],"categories_segments":[],"categories_sizes":[],"default_left":[1,1,1,0,1,0,1,1,1,0,0,1,1,1,1,1,1,1,1,1,1,1,1,0,0,0,0,0,0,0,0,0,0,0,0,0,0,0,0],"id":31,"left_children":[1,3,5,-1,7,-1,9,11,13,-1,-1,15,17,19,21,23,25,27,29,31,33,35,37,-1,-1,-1,-1,-1,-1,-1,-1,-1,-1,-1,-1,-1,-1,-1,-1],"loss_changes":[1.6932509E3,2.059168E3,2.295166E0,0E0,1.0728052E2,0E0,2.8042872E0,5.8621582E1,1.23528564E2,0E0,0E0,4.1798218E1,1.8718874E1,1.6697957E2,5.661972E0,2.418457E1,1.6593029E1,8.623973E0,5.275001E1,6.3379555E0,4.936142E1,3.2089539E0,5.014989E0,0E0,0E0,0E0,0E0,0E0,0E0,0E0,0E0,0E0,0E0,0E0,0E0,0E0,0E0,0E0,0E0],"parents":[2147483647,0,0,1,1,2,2,4,4,6,6,7,7,8,8,11,11,12,12,13,13,14,14,15,15,16,16,17,17,18,18,19,19,20,20,21,21,22,22],"right_children":[2,4,6,-1,8,-1,10,12,14,-1,-1,16,18,20,22,24,26,28,30,32,34,36,38,-1,-1,-1,-1,-1,-1,-1,-1,-1,-1,-1,-1,-1,-1,-1,-1],"split_conditions":[2.5E0,5E-1,2.989362E-1,1.0240283E-1,3.35E1,1.0191887E-1,5E-1,5E-1,1.65E1,-1.6359845E-2,8.678978E-2,5E-1,3.4949145E0,6.5E0,4.25E1,1.5E0,3.7948709E0,1.4039409E-1,1.35E1,5.5E0,5E-1,5E-1,5E-1,9.0132795E-2,-8.752691E-2,-4.3385312E-2,6.521758E-2,-4.28431E-2,9.0549804E-2,2.4762984E-1,-2.936912E-2,-9.1709524E-2,-3.9522562E-2,1.3589342E-1,-1.3952543E-1,-7.710191E-2,-2.8844988E-3,-5.842942E-2,4.4399302E-2],"split_indices":[9,26,18,0,0,0,13,34,2,0,0,13,35,2,0,6,35,14,2,2,41,34,7,0,0,0,0,0,0,0,0,0,0,0,0,0,0,0,0],"split_type":[0,0,0,0,0,0,0,0,0,0,0,0,0,0,0,0,0,0,0,0,0,0,0,0,0,0,0,0,0,0,0,0,0,0,0,0,0,0,0],"sum_hessian":[5.1041704E3,3.8517344E3,1.2524362E3,8.760449E2,2.9756895E3,1.2430443E3,9.39184E0,2.4922E3,4.834896E2,4.0397515E0,5.352088E0,2.3896567E3,1.0254315E2,2.034752E2,2.8001437E2,2.2375505E3,1.521062E2,7.226093E1,3.0282217E1,9.933276E1,1.0414244E2,2.625002E2,1.7514185E1,6.929771E0,2.2306208E3,1.3733495E2,1.4771247E1,6.7974625E1,4.286314E0,9.042114E0,2.1240103E1,4.1463623E1,5.7869137E1,9.796705E1,6.175392E0,2.5645847E2,6.041741E0,1.0246366E1,7.2678185E0],"tree_param":{"num_deleted":"0","num_feature":"43","num_nodes":"39","size_leaf_vector":"0"}},{"base_weights":[6.3762264E-3,-3.155153E-1,1.0132825E0,1.021454E0,-6.996418E-1,1.0166945E0,3.277026E-1,-7.826589E-1,-2.749142E-1,-8.2500976E-1,-2.2058351E-1,2.5468802E-1,-6.9131535E-1,-8.5295194E-1,-1.5162045E-1,1.5791243E-2,-6.042801E-1,-6.053053E-1,1.0267286E0,-7.3308486E-1,-7.755251E-2,8.9486665E-1,-8.5907E-1,-6.1270344E-1,2.9515335E-1,-3.404029E-1,1.5786433E0,-6.7451644E-1,1.7332366E-1,-8.967143E-1,-3.9050987E-1,2.1770492E0,5.677595E-1,-7.5400865E-1,4.3014865E-2,5.3722143E-1,-4.8243007E-1],"categories":[],"categories_nodes":[],"categories_segments":[],"categories_sizes":[],"default_left":[1,1,1,0,1,0,0,1,1,1,1,1,1,1,1,1,1,1,1,1,1,0,0,0,0,0,0,0,0,0,0,0,0,0,0,0,0],"id":32,"left_children":[1,3,5,-1,7,-1,-1,9,11,13,15,17,19,21,23,25,27,29,31,33,35,-1,-1,-1,-1,-1,-1,-1,-1,-1,-1,-1,-1,-1,-1,-1,-1],"loss_changes":[1.5201211E3,1.8259014E3,2.324585E0,0E0,9.7148926E1,0E0,0E0,5.479004E1,1.0008063E2,4.0271484E1,1.4808829E1,1.3350365E2,6.45195E0,2.2811401E1,1.8053806E1,5.7288464E1,3.5155811E0,5.615322E0,5.4639854E1,3.8906784E0,4.5641975E0,0E0,0E0,0E0,0E0,0E0,0E0,0E0,0E0,0E0,0E0,0E0,0E0,0E0,0E0,0E0,0E0],"parents":[2147483647,0,0,1,1,2,2,4,4,7,7,8,8,9,9,10,10,11,11,12,12,13,13,14,14,15,15,16,16,17,17,18,18,19,19,20,20],"right_children":[2,4,6,-1,8,-1,-1,10,12,14,16,18,20,22,24,26,28,30,32,34,36,-1,-1,-1,-1,-1,-1,-1,-1,-1,-1,-1,-1,-1,-1,-1,-1],"split_conditions":[2.5E0,5E-1,5E-1,1.02145396E-1,3.35E1,1.0166945E-1,3.277026E-2,5E-1,2.15E1,5E-1,1.25E1,6.5E0,4.25E1,1.5E0,1.95E1,3.4981918E0,5E-1,5.5E0,2.5E0,3.5E0,8.620508E-1,8.9486666E-2,-8.5907005E-2,-6.1270345E-2,2.9515335E-2,-3.404029E-2,1.5786433E-1,-6.745165E-2,1.7332366E-2,-8.967143E-2,-3.905099E-2,2.1770492E-1,5.6775954E-2,-7.540087E-2,4.3014865E-3,5.3722143E-2,-4.824301E-2],"split_indices":[9,26,41,0,0,0,0,13,2,34,2,2,0,6,15,35,34,2,6,33,16,0,0,0,0,0,0,0,0,0,0,0,0,0,0,0,0],"split_type":[0,0,0,0,0,0,0,0,0,0,0,0,0,0,0,0,0,0,0,0,0,0,0,0,0,0,0,0,0,0,0,0,0,0,0,0,0],"sum_hessian":[4.6880864E3,3.5529521E3,1.1351343E3,7.926031E2,2.760349E3,1.1290322E3,6.1020107E0,2.3083228E3,4.5202652E2,2.1461484E3,1.6217429E2,1.991389E2,2.5288762E2,2.0603862E3,8.576205E1,1.0094585E2,6.1228443E1,9.430567E1,1.0483324E2,2.3659198E2,1.6295637E1,6.6802707E0,2.053706E3,4.202238E1,4.3739666E1,8.28463E1,1.8099548E1,5.6277775E1,4.9506664E0,3.8669174E1,5.5636494E1,2.8830814E1,7.600242E1,2.3040858E2,6.183391E0,6.340788E0,9.95485E0],"tree_param":{"num_deleted":"0","num_feature":"43","num_nodes":"37","size_leaf_vector":"0"}},{"base_weights":[4.356596E-3,-3.0944103E-1,1.0105935E0,1.0191127E0,-6.806428E-1,1.0143797E0,4.9046084E-1,-7.466784E-1,-1.4846812E-1,3.416231E-2,8.3111376E-1,-7.7588266E-1,1.7195807E-1,6.1389315E-1,-4.401512E-1,1.0665814E0,-7.8384495E-1,4.4234565E-1,-7.568581E-1,-6.1349684E-1,1.3331704E0,1.260502E-1,-5.927694E-1,-8.3986545E-1,-5.175436E-1,6.259557E-1,-9.405164E-1,-4.87591E-1,-8.8616633E-1,-8.948023E-1,-6.547747E-3,-9.304797E-1,1.8779703E0,1.09502E0,-2.5820345E-1,-6.367928E-1,5.577014E-1],"categories":[],"categories_nodes":[],"categories_segments":[],"categories_sizes":[],"default_left":[1,1,1,0,1,0,1,1,1,0,0,1,1,1,1,0,1,1,1,1,1,1,1,0,0,0,0,0,0,0,0,0,0,0,0,0,0],"id":33,"left_children":[1,3,5,-1,7,-1,9,11,13,-1,-1,15,17,19,21,-1,23,25,27,29,31,33,35,-1,-1,-1,-1,-1,-1,-1,-1,-1,-1,-1,-1,-1,-1],"loss_changes":[1.3645535E3,1.6252924E3,1.5255127E0,0E0,9.0396484E1,0E0,1.426564E0,6.1593506E1,6.3766735E1,0E0,0E0,3.3411133E1,1.8267199E1,7.094701E1,1.7971714E1,0E0,3.255725E1,1.4791138E1,1.4132118E-1,5.1224155E0,6.390307E1,1.696237E1,8.626545E0,0E0,0E0,0E0,0E0,0E0,0E0,0E0,0E0,0E0,0E0,0E0,0E0,0E0,0E0],"parents":[2147483647,0,0,1,1,2,2,4,4,6,6,7,7,8,8,11,11,12,12,13,13,14,14,16,16,17,17,18,18,19,19,20,20,21,21,22,22],"right_children":[2,4,6,-1,8,-1,10,12,14,-1,-1,16,18,20,22,-1,24,26,28,30,32,34,36,-1,-1,-1,-1,-1,-1,-1,-1,-1,-1,-1,-1,-1,-1],"split_conditions":[2.5E0,5E-1,2.989362E-1,1.0191127E-1,5E-1,1.0143798E-1,5E-1,2.5E0,1.05E1,3.416231E-3,8.3111376E-2,4.5E0,1.45E1,6.5E0,1.7902932E-1,1.0665814E-1,3.25E1,2.3904762E-1,7.0669055E-1,5.5E0,2.45E1,1.55E1,3.5E0,-8.398654E-2,-5.1754363E-2,6.259557E-2,-9.4051644E-2,-4.87591E-2,-8.861663E-2,-8.948023E-2,-6.547747E-4,-9.304797E-2,1.8779704E-1,1.0950201E-1,-2.5820345E-2,-6.367928E-2,5.577014E-2],"split_indices":[9,26,18,0,7,0,7,13,2,0,0,17,2,2,18,0,0,18,16,2,0,2,33,0,0,0,0,0,0,0,0,0,0,0,0,0,0],"split_type":[0,0,0,0,0,0,0,0,0,0,0,0,0,0,0,0,0,0,0,0,0,0,0,0,0,0,0,0,0,0,0,0,0,0,0,0,0],"sum_hessian":[4.3195703E3,3.2932532E3,1.0263171E3,7.1881714E2,2.574436E3,1.0179569E3,8.360283E0,2.289889E3,2.845472E2,4.043872E0,4.316411E0,2.2194849E3,7.0403915E1,7.8436356E1,2.0611084E2,8.978209E0,2.2105066E3,5.4935425E1,1.5468492E1,2.903592E1,4.9400436E1,4.3797955E1,1.6231288E2,1.8245347E3,3.8597205E2,4.89795E1,5.9559255E0,6.5661416E0,8.90235E0,1.9516335E1,9.519585E0,9.4456625E0,3.9954773E1,1.1911379E1,3.1886576E1,1.5676085E2,5.552044E0],"tree_param":{"num_deleted":"0","num_feature":"43","num_nodes":"37","size_leaf_vector":"0"}},{"base_weights":[8.425151E-3,-2.9610524E-1,1.0059127E0,-3.653677E-1,3.4432727E-1,1.0111338E0,3.6154765E-1,-4.1075647E-1,3.865405E-1,8.561407E-2,7.147612E-1,1.0131851E0,5.5179E-1,-4.9172986E-1,-1.9080144E-1,5.922854E-1,-1.7820576E-1,-1.7875189E-2,7.3562694E-1,1.0746895E0,4.2459045E-2,1.0217028E0,-5.0658625E-1,-6.9271886E-1,2.3315245E-1,3.069012E-1,1.2999583E0,-3.4932345E-1,3.2494742E-1,3.5138834E-1,-1.14022925E-1,9.1424584E-1,1.4307067E-1,-1.4610548E-1,1.2245336E0,-2.3205839E-1,8.0320686E-1,-5.2093935E-1,3.7346092E-1,-8.434867E-1,-5.687696E-1,1.8703946E0,4.5248445E-2,-1.2811863E-1,7.514556E-1,1.571491E0,5.516791E-1,-1.4005637E-1,-4.9595842E-1,5.938085E-1,-4.461586E-2,5.631389E-1,-7.568285E-2,-2.689309E-1,3.064504E-1,1.3128527E-1,1.1423455E0,-5.072898E-1,2.4388598E-1,1.3490777E0,6.0872245E-1,2.9339138E-1,-3.6481294E-1,9.498994E-1,4.1449162E-1],"categories":[],"categories_nodes":[],"categories_segments":[],"categories_sizes":[],"default_left":[1,1,1,1,1,1,0,1,1,1,1,0,0,1,1,1,1,1,1,1,1,0,1,1,1,1,1,1,1,1,1,1,0,1,1,1,1,0,0,0,0,0,0,0,0,0,0,0,0,0,0,0,0,0,0,0,0,0,0,0,0,0,0,0,0],"id":34,"left_children":[1,3,5,7,9,11,-1,13,15,17,19,-1,-1,21,23,25,27,29,31,33,35,-1,37,39,41,43,45,47,49,51,53,55,-1,57,59,61,63,-1,-1,-1,-1,-1,-1,-1,-1,-1,-1,-1,-1,-1,-1,-1,-1,-1,-1,-1,-1,-1,-1,-1,-1,-1,-1,-1,-1],"loss_changes":[1.2119077E3,1.3570605E2,2.7738037E0,9.430786E1,2.857594E1,3.1262207E-1,0E0,4.6251373E1,1.8413338E1,1.1924782E1,2.965501E1,0E0,0E0,4.326712E1,1.4949974E2,2.2971684E1,3.8022099E0,5.4980702E0,2.4457874E0,1.4795036E1,9.341717E0,0E0,2.398581E1,5.5303345E0,1.1718994E2,1.6297218E1,5.827179E0,9.263556E-1,1.1582967E0,2.9367814E0,8.076156E0,3.1575317E0,0E0,1.4799757E0,4.645035E0,2.408307E0,2.8191423E-1,0E0,0E0,0E0,0E0,0E0,0E0,0E0,0E0,0E0,0E0,0E0,0E0,0E0,0E0,0E0,0E0,0E0,0E0,0E0,0E0,0E0,0E0,0E0,0E0,0E0,0E0,0E0,0E0],"parents":[2147483647,0,0,1,1,2,2,3,3,4,4,5,5,7,7,8,8,9,9,10,10,13,13,14,14,15,15,16,16,17,17,18,18,19,19,20,20,22,22,23,23,24,24,25,25,26,26,27,27,28,28,29,29,30,30,31,31,33,33,34,34,35,35,36,36],"right_children":[2,4,6,8,10,12,-1,14,16,18,20,-1,-1,22,24,26,28,30,32,34,36,-1,38,40,42,44,46,48,50,52,54,56,-1,58,60,62,64,-1,-1,-1,-1,-1,-1,-1,-1,-1,-1,-1,-1,-1,-1,-1,-1,-1,-1,-1,-1,-1,-1,-1,-1,-1,-1,-1,-1],"split_conditions":[2.5E0,5E-1,2.989362E-1,5E-1,3.6072059E0,5E-1,3.6154766E-2,5.5E0,3.5E0,5E-1,1.55E1,1.01318516E-1,5.5179E-2,1.5E0,6.5E0,2.5E0,5.5E0,6.0990334E-1,2.4068965E-1,6.5E0,2.95E1,1.0217028E-1,3.5E0,5.5E0,7.5E0,1.65E1,8.070719E-1,2.55E1,3.5894628E0,2.3904762E-1,5.5E0,2.0761494E-1,1.4307067E-2,2.45E1,1.35E1,1.65E1,5.5E0,-5.2093934E-2,3.734609E-2,-8.434867E-2,-5.6876957E-2,1.8703946E-1,4.5248447E-3,-1.2811864E-2,7.5145565E-2,1.571491E-1,5.516791E-2,-1.4005638E-2,-4.9595844E-2,5.9380848E-2,-4.461586E-3,5.631389E-2,-7.568285E-3,-2.6893092E-2,3.064504E-2,1.31285265E-2,1.1423456E-1,-5.0728984E-2,2.4388598E-2,1.3490777E-1,6.0872246E-2,2.9339138E-2,-3.6481295E-2,9.498994E-2,4.1449163E-2],"split_indices":[9,13,18,34,35,41,0,17,33,34,2,0,0,6,2,33,17,16,18,2,1,0,33,2,2,1,16,0,35,18,17,18,0,15,2,2,17,0,0,0,0,0,0,0,0,0,0,0,0,0,0,0,0,0,0,0,0,0,0,0,0,0,0,0,0],"split_type":[0,0,0,0,0,0,0,0,0,0,0,0,0,0,0,0,0,0,0,0,0,0,0,0,0,0,0,0,0,0,0,0,0,0,0,0,0,0,0,0,0,0,0,0,0,0,0,0,0,0,0,0,0,0,0,0,0,0,0,0,0,0,0,0,0],"sum_hessian":[3.9876384E3,3.055504E3,9.321344E2,2.7576904E3,2.9781348E2,9.2407764E2,8.05678E0,2.6011277E3,1.5656271E2,1.7607368E2,1.2173978E2,9.187688E2,5.3088365E0,1.9003169E3,7.0081085E2,1.147199E2,4.184281E1,1.527299E2,2.3343794E1,7.890053E1,4.283925E1,1.781406E1,1.8825028E3,3.2060904E2,3.802018E2,8.277343E1,3.194647E1,3.145201E1,1.0390802E1,3.1003532E1,1.21726364E2,1.7519783E1,5.8240104E0,8.6284685E0,7.027206E1,3.1990406E1,1.0848845E1,1.8526945E3,2.9808418E1,1.4203604E2,1.7857301E2,3.8221024E1,3.4198077E2,4.219511E1,4.057832E1,2.2633263E1,9.313208E0,1.3764055E1,1.7687954E1,5.663653E0,4.7271495E0,2.0513779E1,1.0489755E1,8.921776E1,3.2508606E1,4.3079953E0,1.3211789E1,4.3235292E0,4.3049393E0,5.7460323E1,1.2811735E1,6.208156E0,2.578225E1,6.828304E0,4.020541E0],"tree_param":{"num_deleted":"0","num_feature":"43","num_nodes":"65","size_leaf_vector":"0"}},{"base_weights":[5.8420617E-3,1.0169317E0,-2.8291562E-1,-6.4683366E-1,9.997138E-1,-7.6517755E-1,-3.6704737E-1,1.0072246E0,-1.3588509E-1,-7.992557E-1,-1.2383545E-1,2.3399073E-1,-6.7836016E-1,1.01024E0,6.4557517E-1,-8.1302917E-1,2.970723E-1,-7.506164E-1,3.6037732E-2,-6.0674894E-1,9.671966E-1,1.0581423E0,-6.983865E-1,-8.426636E-1,-3.0080888E-1,-3.172426E-1,6.40285E-1,-8.4684163E-1,-4.111298E-1,8.086285E-1,-2.79337E-1,-8.7829137E-1,-3.788079E-1,1.5624465E0,-8.262742E-2,-7.191002E-1,-3.794787E-2],"categories":[],"categories_nodes":[],"categories_segments":[],"categories_sizes":[],"default_left":[1,0,1,1,1,1,1,1,0,1,1,1,1,0,0,1,1,1,1,1,1,0,1,0,0,0,0,0,0,0,0,0,0,0,0,0,0],"id":35,"left_children":[1,-1,3,5,7,9,11,13,-1,15,17,19,21,-1,-1,23,25,27,29,31,33,-1,35,-1,-1,-1,-1,-1,-1,-1,-1,-1,-1,-1,-1,-1,-1],"loss_changes":[1.112671E3,0E0,1.384366E3,7.620062E1,5.7285156E0,3.5358276E1,1.2898903E2,5.8166504E-2,0E0,2.3500305E1,8.347868E0,1.4586952E2,1.6521683E1,0E0,0E0,2.2841064E1,4.3869157E0,2.0462227E-1,1.6579039E1,6.5008507E0,7.9040886E1,0E0,6.1187897E0,0E0,0E0,0E0,0E0,0E0,0E0,0E0,0E0,0E0,0E0,0E0,0E0,0E0,0E0],"parents":[2147483647,0,0,2,2,3,3,4,4,5,5,6,6,7,7,9,9,10,10,11,11,12,12,15,15,16,16,17,17,18,18,19,19,20,20,22,22],"right_children":[2,-1,4,6,8,10,12,14,-1,16,18,20,22,-1,-1,24,26,28,30,32,34,-1,36,-1,-1,-1,-1,-1,-1,-1,-1,-1,-1,-1,-1,-1,-1],"split_conditions":[5E-1,1.0169317E-1,2.5E0,3.6092935E0,2.989362E-1,5E-1,1.55E1,2.7888888E-1,-1.35885095E-2,1.7316341E-1,8.5E0,6.5E0,1.5E0,1.01023994E-1,6.4557515E-2,3.25E1,1.15E1,3.0645828E0,1.05E1,5.5E0,1.35E1,1.0581423E-1,5E-1,-8.426636E-2,-3.0080888E-2,-3.172426E-2,6.40285E-2,-8.468416E-2,-4.111298E-2,8.086285E-2,-2.79337E-2,-8.7829135E-2,-3.788079E-2,1.5624465E-1,-8.262742E-3,-7.1910016E-2,-3.7947872E-3],"split_indices":[26,0,9,35,18,34,2,18,0,14,2,2,6,0,0,0,15,35,2,2,2,0,34,0,0,0,0,0,0,0,0,0,0,0,0,0,0],"split_type":[0,0,0,0,0,0,0,0,0,0,0,0,0,0,0,0,0,0,0,0,0,0,0,0,0,0,0,0,0,0,0,0,0,0,0,0,0],"sum_hessian":[3.8090554E3,8.456115E2,2.9634438E3,2.308853E3,6.545909E2,1.6213291E3,6.875239E2,6.504022E2,4.188682E0,1.5392915E3,8.203757E1,2.3468198E2,4.5284195E2,6.4324554E2,7.1566596E0,1.5204481E3,1.884337E1,1.5921692E1,6.6115875E1,1.0940446E2,1.2527752E2,4.5718846E0,4.4827008E2,1.436684E3,8.3764206E1,6.781272E0,1.20620985E1,1.1241019E1,4.680672E0,1.871201E1,4.7403866E1,4.8625065E1,6.0779392E1,7.9635765E1,4.5641754E1,4.3455215E2,1.3717927E1],"tree_param":{"num_deleted":"0","num_feature":"43","num_nodes":"37","size_leaf_vector":"0"}},{"base_weights":[4.927728E-3,1.0150573E0,-2.7727458E-1,-6.274376E-1,9.984126E-1,-7.233581E-1,-2.6973262E-1,1.006692E0,-1.3663276E-1,-7.6523614E-1,4.4424203E-3,3.202158E-1,-6.7881924E-1,-8.048066E-1,-2.9521835E-1,2.6066893E-1,-6.3326335E-1,2.5492294E0,-8.898751E-2,-7.0143807E-1,1.09174006E-1,8.603711E-1,-8.112911E-1,-4.0694764E-1,2.8716904E-1,-7.7542834E-2,1.8297989E0,-7.90584E-1,2.2115631E-1,5.131766E0,1.545095E0,-5.365835E-1,4.5525786E-1,-7.6734895E-1,-3.946621E-1],"categories":[],"categories_nodes":[],"categories_segments":[],"categories_sizes":[],"default_left":[1,0,1,1,1,1,1,0,0,1,1,1,1,1,1,1,1,1,1,1,0,0,0,0,0,0,0,0,0,0,0,0,0,0,0],"id":36,"left_children":[1,-1,3,5,7,9,11,-1,-1,13,15,17,19,21,23,25,27,29,31,33,-1,-1,-1,-1,-1,-1,-1,-1,-1,-1,-1,-1,-1,-1,-1],"loss_changes":[1.0054697E3,0E0,1.2321737E3,7.4048584E1,5.7212524E0,5.1990845E1,1.1102707E2,0E0,0E0,2.9760193E1,1.5491782E1,1.7233504E2,4.914795E0,1.6755127E1,8.369196E0,3.6029243E1,3.827979E0,6.8054016E1,3.9315525E1,5.0354767E0,0E0,0E0,0E0,0E0,0E0,0E0,0E0,0E0,0E0,0E0,0E0,0E0,0E0,0E0,0E0],"parents":[2147483647,0,0,2,2,3,3,4,4,5,5,6,6,9,9,10,10,11,11,12,12,13,13,14,14,15,15,16,16,17,17,18,18,19,19],"right_children":[2,-1,4,6,8,10,12,-1,-1,14,16,18,20,22,24,26,28,30,32,34,-1,-1,-1,-1,-1,-1,-1,-1,-1,-1,-1,-1,-1,-1,-1],"split_conditions":[5E-1,1.01505734E-1,2.5E0,3.25E1,2.989362E-1,5E-1,1.95E1,1.00669205E-1,-1.3663276E-2,5E-1,3.5E0,2.5E0,5E-1,1.5E0,3.6939812E0,2.5E0,5E-1,3.55E1,6.5E0,5E-1,1.0917401E-2,8.6037114E-2,-8.112911E-2,-4.0694766E-2,2.8716905E-2,-7.7542835E-3,1.829799E-1,-7.90584E-2,2.2115631E-2,5.131766E-1,1.545095E-1,-5.3658348E-2,4.5525786E-2,-7.673489E-2,-3.9466213E-2],"split_indices":[26,0,9,0,18,34,2,0,0,13,33,6,34,6,35,33,7,0,2,7,0,0,0,0,0,0,0,0,0,0,0,0,0,0,0],"split_type":[0,0,0,0,0,0,0,0,0,0,0,0,0,0,0,0,0,0,0,0,0,0,0,0,0,0,0,0,0,0,0,0,0,0,0],"sum_hessian":[3.5252231E3,7.692244E2,2.7559988E3,2.1628318E3,5.93167E2,1.7046884E3,4.581435E2,5.8898376E2,4.1832047E0,1.611888E3,9.280037E1,1.8769035E2,2.7045312E2,1.4860651E3,1.25822914E2,6.66229E1,2.6177462E1,2.830074E1,1.5938962E2,2.6301337E2,7.4397774E0,5.253786E0,1.4808113E3,1.0582243E2,2.0000479E1,5.559129E1,1.1031617E1,2.217009E1,4.0073724E0,6.7723274E0,2.1528412E1,8.7468346E1,7.192127E1,2.1526277E2,4.7750587E1],"tree_param":{"num_deleted":"0","num_feature":"43","num_nodes":"35","size_leaf_vector":"0"}},{"base_weights":[7.4265944E-3,1.0133477E0,-2.6667306E-1,-5.2241075E-1,6.943705E-1,-6.805787E-1,3.4023926E-2,-9.8289855E-2,9.25445E-1,9.8442173E-1,-7.1573865E-1,4.8767465E-1,-5.4385036E-1,9.630173E-1,-2.2441395E-1,4.7511082E-2,9.8705655E-1,-7.5171804E-1,-6.652955E-2,1.2218713E0,-4.874617E-2,1.0341061E0,-6.205949E-1,-5.653349E-1,2.1533182E-1,-5.10785E-1,1.0085101E0,6.580041E-2,1.0039761E0,-7.865453E-1,-3.340932E-1,-5.322373E-1,3.1101048E-1,2.6335764E0,1.1080627E0,-4.6067277E-1,3.6575112E-1,-7.184994E-1,-2.4054432E-1,-7.5685203E-1,2.1366233E-1,5.226561E-1,-1.8368454E-1,1.4740875E-1,-7.959623E-1,1.146222E0,9.399318E-1],"categories":[],"categories_nodes":[],"categories_segments":[],"categories_sizes":[],"default_left":[1,0,1,1,1,1,1,1,1,0,1,1,1,0,1,1,1,1,1,1,1,0,1,1,1,1,0,0,1,0,0,0,0,0,0,0,0,0,0,0,0,0,0,0,0,0,0],"id":37,"left_children":[1,-1,3,5,7,9,11,13,15,-1,17,19,21,-1,23,25,27,29,31,33,35,-1,37,39,41,43,-1,-1,45,-1,-1,-1,-1,-1,-1,-1,-1,-1,-1,-1,-1,-1,-1,-1,-1,-1,-1],"loss_changes":[9.001893E2,0E0,6.3095654E2,1.7842432E2,9.894144E1,9.310828E1,1.1813285E2,1.6642963E1,2.2561157E1,0E0,3.6070435E1,9.946708E1,2.4644516E1,0E0,1.6687157E1,1.5783985E1,6.020874E0,2.1046265E1,1.4635351E1,1.4208282E1,2.5235035E1,0E0,6.883377E0,9.488817E0,6.1020956E0,3.6207733E0,0E0,0E0,2.4153137E0,0E0,0E0,0E0,0E0,0E0,0E0,0E0,0E0,0E0,0E0,0E0,0E0,0E0,0E0,0E0,0E0,0E0,0E0],"parents":[2147483647,0,0,2,2,3,3,4,4,5,5,6,6,7,7,8,8,10,10,11,11,12,12,14,14,15,15,16,16,17,17,18,18,19,19,20,20,22,22,23,23,24,24,25,25,28,28],"right_children":[2,-1,4,6,8,10,12,14,16,-1,18,20,22,-1,24,26,28,30,32,34,36,-1,38,40,42,44,-1,-1,46,-1,-1,-1,-1,-1,-1,-1,-1,-1,-1,-1,-1,-1,-1,-1,-1,-1,-1],"split_conditions":[5E-1,1.0133477E-1,5E-1,3.35E1,5.5E0,5E-1,2.15E1,1.5E0,6.5E0,9.8442174E-2,5E-1,1.5E0,5E-1,9.630173E-2,1.09126985E-1,4.25E1,2.45E1,3.7208936E0,1.95E1,5.5E0,6.5E0,1.0341062E-1,5.5E0,3.6940532E0,1.15E1,5.334282E-2,1.00851014E-1,6.5800413E-3,8.5E0,-7.865453E-2,-3.3409324E-2,-5.322373E-2,3.1101048E-2,2.6335764E-1,1.1080628E-1,-4.606728E-2,3.6575112E-2,-7.184994E-2,-2.4054432E-2,-7.56852E-2,2.1366233E-2,5.226561E-2,-1.8368455E-2,1.4740876E-2,-7.959623E-2,1.146222E-1,9.399318E-2],"split_indices":[26,0,13,0,17,24,2,6,2,0,34,24,24,0,14,0,0,35,15,17,2,0,17,35,2,14,0,0,2,0,0,0,0,0,0,0,0,0,0,0,0,0,0,0,0,0,0],"split_type":[0,0,0,0,0,0,0,0,0,0,0,0,0,0,0,0,0,0,0,0,0,0,0,0,0,0,0,0,0,0,0,0,0,0,0,0,0,0,0,0,0,0,0,0,0,0,0],"sum_hessian":[3.2628557E3,6.981202E2,2.5647356E3,2.0260513E3,5.3868427E2,1.5774375E3,4.486137E2,1.21719955E2,4.169643E2,3.2063625E1,1.5453739E3,2.5140692E2,1.9720679E2,1.2223803E1,1.0949615E2,2.745895E1,3.8950534E2,1.4640764E3,8.12975E1,1.0559785E2,1.4580908E2,8.567821E0,1.8863896E2,6.1517773E1,4.797838E1,1.7664928E1,9.794023E0,7.112739E0,3.823926E2,1.3505647E3,1.1351176E2,3.6215176E1,4.508233E1,6.22621E0,9.9371635E1,7.307544E1,7.2733635E1,1.4928998E2,3.9348995E1,4.940094E1,1.2116832E1,2.6928251E1,2.1050125E1,5.4860754E0,1.2178853E1,1.134708E2,2.689218E2],"tree_param":{"num_deleted":"0","num_feature":"43","num_nodes":"47","size_leaf_vector":"0"}},{"base_weights":[7.501546E-3,1.0117731E0,-2.5729167E-1,-5.8281434E-1,9.9318486E-1,-6.9836044E-1,-2.9205394E-1,1.0030677E0,-1.2957756E-1,-7.28629E-1,4.5130126E-2,-7.1710855E-1,8.0411986E-2,1.0070702E0,5.510415E-1,1.0158439E0,-7.41084E-1,2.8983736E-1,-6.248828E-1,-7.407524E-1,5.386985E-1,1.7419631E0,-2.8506565E-1,-7.6942575E-1,-1.8584353E-1,1.1669946E-1,1.3761321E0,-7.062216E-1,-3.3309996E-1,-6.1502296E-1,-9.016865E-1,2.02953E0,-9.1528434E-1,-4.0580884E-1,6.8257457E-1],"categories":[],"categories_nodes":[],"categories_segments":[],"categories_sizes":[],"default_left":[1,0,1,1,1,1,1,1,0,1,1,1,1,0,0,0,1,1,1,1,0,1,1,0,0,0,0,0,0,0,0,0,0,0,0],"id":38,"left_children":[1,-1,3,5,7,9,11,13,-1,15,17,19,21,-1,-1,-1,23,25,27,29,-1,31,33,-1,-1,-1,-1,-1,-1,-1,-1,-1,-1,-1,-1],"loss_changes":[8.0699225E2,0E0,9.7813007E2,6.3833862E1,5.6381226E0,3.0713623E1,8.614787E1,3.3547974E-1,0E0,2.9216736E1,9.079596E0,7.9426727E0,1.7703745E2,0E0,0E0,0E0,2.0335571E1,7.4447746E0,1.16867065E-1,4.49971E0,0E0,4.2018753E1,2.8219444E1,0E0,0E0,0E0,0E0,0E0,0E0,0E0,0E0,0E0,0E0,0E0,0E0],"parents":[2147483647,0,0,2,2,3,3,4,4,5,5,6,6,7,7,9,9,10,10,11,11,12,12,16,16,17,17,18,18,19,19,21,21,22,22],"right_children":[2,-1,4,6,8,10,12,14,-1,16,18,20,22,-1,-1,-1,24,26,28,30,-1,32,34,-1,-1,-1,-1,-1,-1,-1,-1,-1,-1,-1,-1],"split_conditions":[5E-1,1.0117731E-1,5E-1,5.5E0,2.9520696E-1,2.5E0,6.5E0,2.7888888E-1,-1.2957756E-2,1.5E0,1.45E1,4.65E1,7.5E0,1.0070702E-1,5.5104148E-2,1.0158439E-1,5E-1,2.55E1,3.8811126E0,2.2401434E-1,5.386985E-2,5E-1,5E-1,-7.694258E-2,-1.8584354E-2,1.1669946E-2,1.3761322E-1,-7.062216E-2,-3.3309996E-2,-6.1502296E-2,-9.016865E-2,2.0295301E-1,-9.152844E-2,-4.0580884E-2,6.825746E-2],"split_indices":[26,0,3,17,18,13,2,18,0,6,2,0,2,0,0,0,34,0,35,18,0,41,34,0,0,0,0,0,0,0,0,0,0,0,0],"split_type":[0,0,0,0,0,0,0,0,0,0,0,0,0,0,0,0,0,0,0,0,0,0,0,0,0,0,0,0,0,0,0,0,0,0,0],"sum_hessian":[3.0326902E3,6.3218896E2,2.4005012E3,1.9051013E3,4.953999E2,1.3623221E3,5.427791E2,4.9118295E2,4.216943E0,1.3090488E3,5.327326E1,2.5306194E2,2.897172E2,4.8565494E2,5.52804E0,8.708833E0,1.3003401E3,3.943714E1,1.3836117E1,2.48788E2,4.2739472E0,5.1557568E1,2.3815964E2,1.2368219E3,6.3518185E1,3.4970787E1,4.4663515E0,9.709175E0,4.126942E0,1.4237746E2,1.0641053E2,4.673603E1,4.8215394E0,2.1225487E2,2.5904772E1],"tree_param":{"num_deleted":"0","num_feature":"43","num_nodes":"35","size_leaf_vector":"0"}},{"base_weights":[6.852764E-3,1.0103261E0,-2.5082323E-1,-5.625116E-1,9.9027675E-1,-6.9278896E-1,-2.7319148E-1,1.0011555E0,-1.4706297E-1,-7.213102E-1,6.65082E-2,2.7468866E-1,-5.828398E-1,-7.603511E-1,-2.9242653E-1,2.6641256E-1,-1.0491912E0,-5.13069E-1,9.036052E-1,-6.106742E-1,4.2050287E-2,-7.955525E-1,-2.3510638E-1,5.521599E-1,-7.2207934E-1,5.611359E-1,-2.6722002E-1,-8.187774E-1,-2.730301E-1,1.376748E0,7.179747E-2,-6.347757E-1,8.908239E-2,7.8331465E-1,-5.8159477E-1],"categories":[],"categories_nodes":[],"categories_segments":[],"categories_sizes":[],"default_left":[1,0,1,1,1,1,1,0,0,1,1,1,1,1,1,1,0,1,1,1,1,0,0,0,0,0,0,0,0,0,0,0,0,0,0],"id":39,"left_children":[1,-1,3,5,7,9,11,-1,-1,13,15,17,19,21,23,25,-1,27,29,31,33,-1,-1,-1,-1,-1,-1,-1,-1,-1,-1,-1,-1,-1,-1],"loss_changes":[7.277989E2,0E0,8.6692523E2,6.7305786E1,5.7139893E0,2.6773132E1,9.476251E1,0E0,0E0,1.9694397E1,1.044815E1,1.00559746E2,6.2281036E0,1.9959229E1,3.700173E1,6.35633E0,0E0,6.4050407E0,4.4258667E1,5.8152084E0,7.9177995E0,0E0,0E0,0E0,0E0,0E0,0E0,0E0,0E0,0E0,0E0,0E0,0E0,0E0,0E0],"parents":[2147483647,0,0,2,2,3,3,4,4,5,5,6,6,9,9,10,10,11,11,12,12,13,13,14,14,15,15,17,17,18,18,19,19,20,20],"right_children":[2,-1,4,6,8,10,12,-1,-1,14,16,18,20,22,24,26,-1,28,30,32,34,-1,-1,-1,-1,-1,-1,-1,-1,-1,-1,-1,-1,-1,-1],"split_conditions":[5E-1,1.01032615E-1,2.5E0,3.6088858E0,2.989362E-1,1.13247864E-1,1.55E1,1.0011555E-1,-1.4706298E-2,3.15E1,2.3904762E-1,6.5E0,5E-1,5E-1,1.65E1,1.15E1,-1.0491913E-1,5.5E0,1.35E1,3.05E1,3.5E0,-7.955525E-2,-2.3510639E-2,5.5215992E-2,-7.2207935E-2,5.611359E-2,-2.6722003E-2,-8.187774E-2,-2.730301E-2,1.376748E-1,7.179747E-3,-6.347757E-2,8.908239E-3,7.833146E-2,-5.8159478E-2],"split_indices":[26,0,9,35,18,14,2,0,0,0,18,2,34,34,2,2,0,2,2,2,33,0,0,0,0,0,0,0,0,0,0,0,0,0,0],"split_type":[0,0,0,0,0,0,0,0,0,0,0,0,0,0,0,0,0,0,0,0,0,0,0,0,0,0,0,0,0,0,0,0,0,0,0],"sum_hessian":[2.8127166E3,5.740929E2,2.2386238E3,1.7897058E3,4.4891788E2,1.2330735E3,5.566324E2,4.4478323E2,4.134638E0,1.188481E3,4.4592464E1,2.0103734E2,3.5559503E2,1.0886125E3,9.986842E1,3.8462242E1,6.1302204E0,8.933004E1,1.117073E2,3.40453E2,1.5142018E1,1.01975494E3,6.88576E1,3.3577873E1,6.629055E1,2.474444E1,1.3717804E1,3.8230045E1,5.1099995E1,7.078741E1,4.091989E1,3.292071E2,1.1245912E1,6.8016057E0,8.340413E0],"tree_param":{"num_deleted":"0","num_feature":"43","num_nodes":"35","size_leaf_vector":"0"}},{"base_weights":[9.593126E-3,1.0089849E0,-2.3833172E-1,-5.3569025E-1,9.850156E-1,-6.602436E-1,-2.7869996E-1,9.968709E-1,-1.2327658E-1,-6.8539995E-1,7.482442E-2,1.6572036E-1,-5.9897816E-1,1.001676E0,5.1422054E-1,9.254709E-1,-6.95722E-1,2.7419713E-1,-1.0434736E0,-5.147923E-1,5.797829E-1,-6.585004E-1,-1.7300145E-1,-7.339667E-1,-2.4595894E-1,7.3340935E-1,3.292559E-2,-5.8435637E-1,3.867013E-1,-1.8210074E-1,1.0972906E0,-7.147015E-1,-3.9285612E-1,4.4300184E-1,-2.931915E-1],"categories":[],"categories_nodes":[],"categories_segments":[],"categories_sizes":[],"default_left":[1,0,1,1,1,1,1,1,0,1,1,1,1,0,0,0,1,1,0,1,1,1,1,0,0,0,0,0,0,0,0,0,0,0,0],"id":40,"left_children":[1,-1,3,5,7,9,11,13,-1,15,17,19,21,-1,-1,-1,23,25,-1,27,29,31,33,-1,-1,-1,-1,-1,-1,-1,-1,-1,-1,-1,-1],"loss_changes":[6.493413E2,0E0,7.64386E2,5.3907074E1,5.522461E0,2.1085358E1,7.886664E1,4.281311E-1,0E0,1.8933228E1,8.879363E0,6.582687E1,8.045998E0,0E0,0E0,0E0,1.862909E1,3.6877236E0,0E0,5.7760906E0,5.7391632E1,3.9295654E0,3.1515186E0,0E0,0E0,0E0,0E0,0E0,0E0,0E0,0E0,0E0,0E0,0E0,0E0],"parents":[2147483647,0,0,2,2,3,3,4,4,5,5,6,6,7,7,9,9,10,10,11,11,12,12,16,16,17,17,19,19,20,20,21,21,22,22],"right_children":[2,-1,4,6,8,10,12,14,-1,16,18,20,22,-1,-1,-1,24,26,-1,28,30,32,34,-1,-1,-1,-1,-1,-1,-1,-1,-1,-1,-1,-1],"split_conditions":[5E-1,1.008985E-1,5E-1,3.594474E0,2.989362E-1,1.2771739E-1,1.65E1,2.7888888E-1,-1.2327658E-2,1.5E0,2.3904762E-1,6.5E0,3.85E1,1.00167595E-1,5.1422056E-2,9.254709E-2,3.15E1,5.8114034E-1,-1.0434736E-1,4.35E1,2.85E1,5E-1,2.65E1,-7.3396675E-2,-2.4595894E-2,7.334094E-2,3.2925592E-3,-5.8435638E-2,3.867013E-2,-1.8210074E-2,1.0972907E-1,-7.147015E-2,-3.928561E-2,4.4300184E-2,-2.931915E-2],"split_indices":[26,0,3,35,18,14,2,18,0,6,18,2,0,0,0,0,0,16,0,0,0,7,2,0,0,0,0,0,0,0,0,0,0,0,0],"split_type":[0,0,0,0,0,0,0,0,0,0,0,0,0,0,0,0,0,0,0,0,0,0,0,0,0,0,0,0,0,0,0,0,0,0,0],"sum_hessian":[2.6187285E3,5.199055E2,2.098823E3,1.6888718E3,4.0995126E2,1.1364897E3,5.523821E2,4.0571194E2,4.2393208E0,1.0989478E3,3.7541973E1,2.3155594E2,3.208261E2,4.006479E2,5.0640574E0,6.4324517E0,1.0925154E3,3.2502213E1,5.03976E0,8.750236E1,1.4405359E2,2.810139E2,3.981224E1,1.00631354E3,8.620176E1,1.0492352E1,2.2009861E1,8.15605E1,5.941851E0,5.8531147E1,8.552244E1,2.3054753E2,5.046634E1,6.06121E0,3.375103E1],"tree_param":{"num_deleted":"0","num_feature":"43","num_nodes":"35","size_leaf_vector":"0"}},{"base_weights":[5.470958E-3,1.0077373E0,-2.3469709E-1,-5.177282E-1,9.816093E-1,-5.8683366E-1,-4.3906108E-2,9.94686E-1,-1.19830616E-1,-6.2207353E-1,1.5206912E-1,-1.1728719E-1,2.4983938E0,9.9999404E-1,4.9759847E-1,-6.980522E-1,-3.810372E-1,3.3335134E-1,-5.7472867E-1,4.4406334E-1,-3.5850936E-1,-7.3607105E-1,-9.81713E-2,9.6932516E-2,-6.658808E-1,1.6319092E-1,1.342145E0,-8.1403995E-1,-3.5374075E-1,-5.4733825E-1,8.8885814E-1,-5.1588863E-1,5.4502483E-2],"categories":[],"categories_nodes":[],"categories_segments":[],"categories_sizes":[],"default_left":[1,0,1,1,1,1,1,1,0,1,1,1,0,0,0,1,1,1,1,1,1,0,0,0,0,0,0,0,0,0,0,0,0],"id":41,"left_children":[1,-1,3,5,7,9,11,13,-1,15,17,19,-1,-1,-1,21,23,25,27,29,31,-1,-1,-1,-1,-1,-1,-1,-1,-1,-1,-1,-1],"loss_changes":[5.869874E2,0E0,6.777151E2,5.2249146E1,5.4727783E0,3.637195E1,3.84041E1,4.718933E-1,0E0,2.409076E1,8.653417E0,2.7175005E1,0E0,0E0,0E0,2.2962952E1,4.376172E1,8.713217E0,4.0949917E-1,2.7126362E1,9.134478E0,0E0,0E0,0E0,0E0,0E0,0E0,0E0,0E0,0E0,0E0,0E0,0E0],"parents":[2147483647,0,0,2,2,3,3,4,4,5,5,6,6,7,7,9,9,10,10,11,11,15,15,16,16,17,17,18,18,19,19,20,20],"right_children":[2,-1,4,6,8,10,12,14,-1,16,18,20,-1,-1,-1,22,24,26,28,30,32,-1,-1,-1,-1,-1,-1,-1,-1,-1,-1,-1,-1],"split_conditions":[5E-1,1.0077373E-1,2.5E0,5E-1,2.989362E-1,2.5E0,5E-1,2.7888888E-1,-1.1983062E-2,3.15E1,1.45E1,1.15E1,2.4983938E-1,9.9999405E-2,4.9759846E-2,5E-1,1.95E1,3.755266E0,1.0960961E-1,6.5E0,3.7948709E0,-7.360711E-2,-9.81713E-3,9.693252E-3,-6.658808E-2,1.6319092E-2,1.342145E-1,-8.140399E-2,-3.5374075E-2,-5.4733824E-2,8.8885814E-2,-5.1588863E-2,5.4502483E-3],"split_indices":[26,0,9,7,18,13,38,18,0,0,2,2,0,0,0,34,2,35,14,2,35,0,0,0,0,0,0,0,0,0,0,0,0],"split_type":[0,0,0,0,0,0,0,0,0,0,0,0,0,0,0,0,0,0,0,0,0,0,0,0,0,0,0,0,0,0,0,0,0],"sum_hessian":[2.4365605E3,4.7038013E2,1.9661804E3,1.5954889E3,3.706915E2,1.3922021E3,2.032868E2,3.664379E2,4.2535844E0,1.3289784E3,6.3223717E1,1.9851083E2,4.775962E0,3.615653E2,4.8725967E0,1.0090216E3,3.1995676E2,5.1035484E1,1.2188232E1,5.9411907E1,1.3909892E2,9.4867053E2,6.0351097E1,1.19722015E2,2.0023476E2,4.4663536E1,6.3719497E0,4.5631194E0,7.625113E0,1.8328667E1,4.108324E1,1.0053914E2,3.855979E1],"tree_param":{"num_deleted":"0","num_feature":"43","num_nodes":"33","size_leaf_vector":"0"}},{"base_weights":[5.073721E-3,1.0065753E0,-2.2681186E-1,-4.9681446E-1,9.811557E-1,-5.091209E-1,1.8696079E0,9.955214E-1,-9.203339E-2,-5.653552E-1,2.551855E-2,1.0014014E0,4.6522304E-1,-6.057929E-1,5.6476064E-2,5.743933E-1,-1.4123912E-1,-7.184605E-1,-3.6389118E-1,-5.090815E-1,3.9432064E-1,-4.0181628E-1,1.4095284E0,-2.3475264E-1,5.2042425E-1],"categories":[],"categories_nodes":[],"categories_segments":[],"categories_sizes":[],"default_left":[1,0,1,1,1,1,0,1,0,1,1,0,0,1,1,1,1,0,0,0,0,0,0,0,0],"id":42,"left_children":[1,-1,3,5,7,9,-1,11,-1,13,15,-1,-1,17,19,21,23,-1,-1,-1,-1,-1,-1,-1,-1],"loss_changes":[5.2885254E2,0E0,6.0358673E2,4.4983917E1,5.30484E0,4.526071E1,0E0,5.748291E-1,0E0,3.4276215E1,1.3278197E1,0E0,0E0,3.4588745E1,1.6262674E1,2.8118664E1,7.014308E0,0E0,0E0,0E0,0E0,0E0,0E0,0E0,0E0],"parents":[2147483647,0,0,2,2,3,3,4,4,5,5,7,7,9,9,10,10,13,13,14,14,15,15,16,16],"right_children":[2,-1,4,6,8,10,-1,12,-1,14,16,-1,-1,18,20,22,24,-1,-1,-1,-1,-1,-1,-1,-1],"split_conditions":[5E-1,1.0065754E-1,5E-1,5E-1,2.989362E-1,5E-1,1.869608E-1,2.7888888E-1,-9.20334E-3,5E-1,7.5E0,1.0014015E-1,4.6522304E-2,2.55E1,1.95E1,6.5E0,5E-1,-7.184605E-2,-3.638912E-2,-5.090815E-2,3.9432064E-2,-4.018163E-2,1.4095284E-1,-2.3475265E-2,5.2042425E-2],"split_indices":[26,0,3,38,18,13,0,18,0,34,2,0,0,15,15,2,34,0,0,0,0,0,0,0,0],"split_type":[0,0,0,0,0,0,0,0,0,0,0,0,0,0,0,0,0,0,0,0,0,0,0,0,0],"sum_hessian":[2.2752588E3,4.2713675E2,1.8481221E3,1.5109795E3,3.3714255E2,1.5039432E3,7.0362854E0,3.327606E2,4.3819656E0,1.3607588E3,1.4318446E2,3.282327E2,4.5278907E0,1.2776959E3,8.3062836E1,